Index,Height(Inches),Weight(Pounds),,Standard,Sorted,,,,,,,,
1,65.78331,112.9925,,-1.20807192,-4.207707187,,,,,,,,
2,71.51521,136.4873,,0.806804704,-4.160275069,,,,,,,,
3,69.39874,153.0269,,2.225214454,-3.833095598,,,,,,,,
4,68.2166,142.3354,,1.308328444,-3.772868326,,,,,,,,
5,67.78781,144.2971,,1.476560711,-3.751144006,,,,,,,,
6,68.69784,123.3024,,-0.323911318,-3.671872365,,,,,,,,
7,69.80204,141.4947,,1.236231351,-3.663566663,,,,,,,,
8,70.01472,136.4623,,0.804660743,-3.620374442,,,,,,,,
9,67.90265,112.3723,,-1.261259284,-3.58375989,,,,,,,,
10,66.78236,120.6672,,-0.549901873,-3.523825912,,,,,,,,
11,66.48769,127.4516,,0.031917464,-3.480090839,,,,,,,,
12,67.62333,114.143,,-1.109406873,-3.46553335,,,,,,,,
13,68.30248,125.6107,,-0.125955187,-3.438690968,,,,,,,,
14,67.11656,122.4618,,-0.395999835,-3.404636305,,,,,,,,
15,68.27967,116.0866,,-0.942726832,-3.368182979,,,,,,,,
16,71.0916,139.9975,,1.107833864,-3.347404574,,,,,,,,
17,66.461,129.5023,,0.20778223,-3.337137578,,,,,,,,
18,68.64927,142.9733,,1.363033732,-3.281880863,,,,,,,,
19,71.23033,137.9025,,0.928170001,-3.248727521,,,,,,,,
20,67.13118,124.0449,,-0.260235701,-3.20998616,,,,,,,,
21,67.83379,141.2807,,1.217879052,-3.194969863,,,,,,,,
22,68.87881,143.5392,,1.411564415,-3.18364032,,,,,,,,
23,63.48115,97.90191,,-2.502216881,-3.177174994,,,,,,,,
24,68.42187,129.5027,,0.207816533,-3.165307745,,,,,,,,
25,67.62804,141.8501,,1.266709889,-3.159071394,,,,,,,,
26,67.20864,129.7244,,0.226829172,-3.15521055,,,,,,,,
27,70.84235,142.4235,,1.31588376,-3.154715724,,,,,,,,
28,67.49434,131.5502,,0.383406872,-3.133566844,,,,,,,,
29,66.53401,108.3324,,-1.607714673,-3.121827375,,,,,,,,
30,65.44098,113.8922,,-1.130915081,-3.121693592,,,,,,,,
31,69.5233,103.3016,,-2.039148067,-3.101151881,,,,,,,,
32,65.8132,120.7536,,-0.542492346,-3.074705703,,,,,,,,
33,67.8163,125.7886,,-0.110698767,-3.072029183,,,,,,,,
34,70.59505,136.2225,,0.784095877,-3.071758187,,,,,,,,
35,71.80484,140.1015,,1.116752739,-3.061549506,,,,,,,,
36,69.20613,128.7487,,0.143154694,-3.04499213,,,,,,,,
37,66.80368,141.7994,,1.262361938,-3.025825984,,,,,,,,
38,67.65893,121.2319,,-0.5014741,-3.024778016,,,,,,,,
39,67.80701,131.3478,,0.36604937,-3.015402907,,,,,,,,
40,64.04535,106.7115,,-1.746720475,-3.000758802,,,,,,,,
41,68.57463,124.3598,,-0.233230379,-2.991111838,,,,,,,,
42,65.18357,124.8591,,-0.190411206,-2.988318687,,,,,,,,
43,69.65814,139.6711,,1.07984232,-2.981390265,,,,,,,,
44,67.96731,137.3696,,0.882469346,-2.97618473,,,,,,,,
45,65.98088,106.4499,,-1.769154874,-2.960907727,,,,,,,,
46,68.67249,128.7639,,0.144458222,-2.957592307,,,,,,,,
47,66.88088,145.6837,,1.595473319,-2.95195455,,,,,,,,
48,67.69868,116.819,,-0.879917375,-2.946442857,,,,,,,,
49,69.82117,143.6215,,1.418622332,-2.944075067,,,,,,,,
50,69.08817,134.9325,,0.673467532,-2.937243553,,,,,,,,
51,69.91479,147.0219,,1.710235219,-2.92977571,,,,,,,,
52,67.33182,126.3285,,-0.064397803,-2.926154991,,,,,,,,
53,70.26939,125.4839,,-0.136829353,-2.914659076,,,,,,,,
54,69.10344,115.7084,,-0.975160662,-2.910760499,,,,,,,,
55,65.38356,123.4892,,-0.307891648,-2.910577833,,,,,,,,
56,70.18447,147.8926,,1.784905064,-2.897601729,,,,,,,,
57,70.40617,155.8987,,2.471495447,-2.884764553,,,,,,,,
58,66.54376,128.0742,,0.085310649,-2.884623909,,,,,,,,
59,66.36418,119.3701,,-0.661139103,-2.880618134,,,,,,,,
60,67.537,133.8148,,0.577615361,-2.874311461,,,,,,,,
61,66.50418,128.7325,,0.141765408,-2.858019936,,,,,,,,
62,68.99958,137.5453,,0.897537098,-2.856044062,,,,,,,,
63,68.30355,129.7604,,0.229916475,-2.855463478,,,,,,,,
64,67.01255,128.824,,0.149612302,-2.848847217,,,,,,,,
65,70.80592,135.3165,,0.706398761,-2.839485829,,,,,,,,
66,68.21951,109.6113,,-1.498038246,-2.837320429,,,,,,,,
67,69.05914,142.4684,,1.319734312,-2.832481082,,,,,,,,
68,67.73103,132.749,,0.48621405,-2.82577306,,,,,,,,
69,67.21568,103.5275,,-2.019775243,-2.820819654,,,,,,,,
70,67.36763,124.7299,,-0.201491192,-2.819226263,,,,,,,,
71,65.27033,129.3137,,0.191608194,-2.818002491,,,,,,,,
72,70.84278,134.0175,,0.59499859,-2.817996487,,,,,,,,
73,69.92442,140.3969,,1.142085772,-2.815590964,,,,,,,,
74,64.28508,102.8351,,-2.079154364,-2.814497544,,,,,,,,
75,68.2452,128.5214,,0.123661808,-2.811122094,,,,,,,,
76,66.35708,120.2991,,-0.581469542,-2.80172383,,,,,,,,
77,68.36275,138.6036,,0.988295221,-2.797939311,,,,,,,,
78,65.4769,132.9574,,0.504086102,-2.792922444,,,,,,,,
79,69.71947,115.6233,,-0.982458702,-2.792913869,,,,,,,,
80,67.72554,122.524,,-0.390665662,-2.785489763,,,,,,,,
81,68.63941,134.6254,,0.647131125,-2.784326022,,,,,,,,
82,66.78405,121.8986,,-0.44429897,-2.774603591,,,,,,,,
83,70.05147,155.3767,,2.426729559,-2.768166565,,,,,,,,
84,66.27848,128.9418,,0.159714643,-2.767375872,,,,,,,,
85,69.20198,129.1013,,0.173393109,-2.756317326,,,,,,,,
86,69.13481,139.4733,,1.062879307,-2.753717131,,,,,,,,
87,67.36436,140.8901,,1.184381818,-2.752224935,,,,,,,,
88,70.09297,131.5916,,0.38695727,-2.749969489,,,,,,,,
89,70.1766,121.1232,,-0.510796039,-2.7427169,,,,,,,,
90,68.22556,131.5127,,0.380190932,-2.738343221,,,,,,,,
91,68.12932,136.5479,,0.812001663,-2.735243913,,,,,,,,
92,70.24256,141.4896,,1.235793984,-2.73374314,,,,,,,,
93,71.48752,140.6104,,1.160395192,-2.727264093,,,,,,,,
94,69.20477,112.1413,,-1.281069476,-2.719467796,,,,,,,,
95,70.06306,133.457,,0.546931003,-2.70528164,,,,,,,,
96,70.55703,131.8001,,0.404837898,-2.69635419,,,,,,,,
97,66.28644,120.0285,,-0.604675767,-2.693750565,,,,,,,,
98,63.42577,123.0972,,-0.341508944,-2.690683844,,,,,,,,
99,66.76711,128.1432,,0.091227979,-2.690070672,,,,,,,,
100,68.88741,115.4759,,-0.995099492,-2.68975165,,,,,,,,
101,64.87434,102.0927,,-2.142821406,-2.687719176,,,,,,,,
102,67.09272,130.353,,0.280736907,-2.687151455,,,,,,,,
103,68.34761,134.1842,,0.609294516,-2.681861877,,,,,,,,
104,65.61073,98.64133,,-2.438805399,-2.680118408,,,,,,,,
105,67.75551,114.5599,,-1.073654193,-2.676959069,,,,,,,,
106,68.0212,123.4917,,-0.307677252,-2.674934313,,,,,,,,
107,67.66193,123.048,,-0.345728257,-2.669251961,,,,,,,,
108,66.3146,126.4772,,-0.051645527,-2.664750502,,,,,,,,
109,69.43706,128.417,,0.114708631,-2.663517296,,,,,,,,
110,63.83624,127.1941,,0.009834675,-2.662373279,,,,,,,,
111,67.72277,122.0562,,-0.430783445,-2.659500372,,,,,,,,
112,70.05098,127.6064,,0.045192866,-2.657497056,,,,,,,,
113,70.18602,131.6423,,0.391305221,-2.6567784,,,,,,,,
114,65.94588,111.8955,,-1.302148893,-2.655430278,,,,,,,,
115,70.007,122.039,,-0.43225849,-2.649621004,,,,,,,,
116,68.61129,128.5547,,0.126517563,-2.639803381,,,,,,,,
117,68.80817,132.6792,,0.480228113,-2.634283113,,,,,,,,
118,69.76212,136.0632,,0.770434563,-2.631800407,,,,,,,,
119,65.45539,115.9403,,-0.955273287,-2.627840083,,,,,,,,
120,68.82534,136.9041,,0.842548808,-2.624377159,,,,,,,,
121,65.8003,119.8804,,-0.617376588,-2.621882447,,,,,,,,
122,67.21474,109.0055,,-1.549990689,-2.620397111,,,,,,,,
123,69.42021,128.2705,,0.102145024,-2.618313182,,,,,,,,
124,68.94396,135.2913,,0.704237649,-2.61803361,,,,,,,,
125,67.9415,106.8558,,-1.734345537,-2.61647881,,,,,,,,
126,65.62506,123.2939,,-0.324640265,-2.609651583,,,,,,,,
127,66.49607,109.5143,,-1.506356812,-2.607101985,,,,,,,,
128,67.92809,119.3087,,-0.666404669,-2.606435643,,,,,,,,
129,68.89415,140.2402,,1.12864743,-2.605972547,,,,,,,,
130,70.241,133.9841,,0.592134259,-2.601316723,,,,,,,,
131,68.26623,132.5807,,0.47178091,-2.599719902,,,,,,,,
132,71.23161,130.6988,,0.310392164,-2.595497158,,,,,,,,
133,69.09747,115.5637,,-0.987569904,-2.594828242,,,,,,,,
134,64.39693,123.7941,,-0.28174391,-2.59294413,,,,,,,,
135,71.09585,128.1427,,0.0911851,-2.586665757,,,,,,,,
136,68.21868,135.9646,,0.761978784,-2.584129881,,,,,,,,
137,65.91721,116.6273,,-0.896357262,-2.58348412,,,,,,,,
138,67.4369,126.8241,,-0.021895936,-2.580958535,,,,,,,,
139,73.90107,151.3913,,2.084948003,-2.580225301,,,,,,,,
140,69.98149,130.4022,,0.28495622,-2.578384925,,,,,,,,
141,69.51862,136.2068,,0.78274947,-2.577355824,,,,,,,,
142,65.18437,113.3989,,-1.173219703,-2.576736649,,,,,,,,
143,68.00869,125.3287,,-0.150139058,-2.576066018,,,,,,,,
144,68.3384,127.5846,,0.043323333,-2.57402411,,,,,,,,
145,65.18417,107.1564,,-1.70856656,-2.566880435,,,,,,,,
146,68.26209,116.4588,,-0.910807553,-2.562454444,,,,,,,,
147,68.56865,133.8402,,0.579793624,-2.554670153,,,,,,,,
148,64.49675,112.8901,,-1.216853581,-2.553788556,,,,,,,,
149,68.71053,130.7568,,0.315366152,-2.546561696,,,,,,,,
150,68.89148,137.7571,,0.915700729,-2.542327803,,,,,,,,
151,69.54011,125.4036,,-0.143715753,-2.537397552,,,,,,,,
152,67.39964,138.4659,,0.976486288,-2.534605258,,,,,,,,
153,66.47521,120.8184,,-0.536935202,-2.533519557,,,,,,,,
154,66.01217,140.1539,,1.121246479,-2.532657685,,,,,,,,
155,72.44434,136.7397,,0.828450126,-2.531650024,,,,,,,,
156,64.12642,106.1139,,-1.797969699,-2.528506978,,,,,,,,
157,70.98112,158.9562,,2.733701777,-2.527856072,,,,,,,,
158,67.50124,108.7868,,-1.568746053,-2.526833832,,,,,,,,
159,72.01515,138.7758,,1.003062818,-2.526396464,,,,,,,,
160,65.31143,115.9136,,-0.957563037,-2.526315851,,,,,,,,
161,67.07509,146.2922,,1.64765731,-2.520358214,,,,,,,,
162,64.39148,109.8765,,-1.475295116,-2.518003288,,,,,,,,
163,69.37003,139.0499,,1.026569198,-2.511144331,,,,,,,,
164,68.37921,119.9001,,-0.615687147,-2.510326196,,,,,,,,
165,65.31018,128.3069,,0.10526663,-2.509556943,,,,,,,,
166,67.1369,127.2428,,0.014011109,-2.508838287,,,,,,,,
167,68.39468,115.2306,,-1.016136029,-2.508376907,,,,,,,,
168,66.2918,124.7975,,-0.195693924,-2.507504744,,,,,,,,
169,67.1866,126.9511,,-0.011004618,-2.50662229,,,,,,,,
170,65.99156,111.2711,,-1.355696442,-2.506390742,,,,,,,,
171,69.43393,122.6089,,-0.383384774,-2.502216881,,,,,,,,
172,67.97463,124.2084,,-0.246214202,-2.494637553,,,,,,,,
173,67.76133,124.6453,,-0.208746353,-2.493962634,,,,,,,,
174,65.27864,119.5169,,-0.648549769,-2.493320304,,,,,,,,
175,73.83364,139.2983,,1.047871586,-2.492504741,,,,,,,,
176,66.81312,104.8265,,-1.908375072,-2.490225283,,,,,,,,
177,66.89411,123.0424,,-0.346208504,-2.488819702,,,,,,,,
178,65.73568,118.8923,,-0.70211447,-2.488817987,,,,,,,,
179,65.98283,121.4939,,-0.479005398,-2.484426299,,,,,,,,
180,66.58396,119.2488,,-0.671541597,-2.481921296,,,,,,,,
181,67.11294,135.0239,,0.681305851,-2.47550914,,,,,,,,
182,65.87481,116.228,,-0.930600594,-2.472125113,,,,,,,,
183,66.78067,109.1731,,-1.53561758,-2.471141464,,,,,,,,
184,68.73577,124.2237,,-0.244902098,-2.470334478,,,,,,,,
185,66.22666,141.1645,,1.207913925,-2.469704153,,,,,,,,
186,65.95968,129.1501,,0.177578119,-2.469402284,,,,,,,,
187,68.58372,127.8693,,0.067738751,-2.467852629,,,,,,,,
188,66.59347,120.9244,,-0.527844811,-2.460881329,,,,,,,,
189,66.96574,127.6466,,0.048640354,-2.460008308,,,,,,,,
190,68.08015,101.4693,,-2.196283197,-2.455738397,,,,,,,,
191,70.19025,144.9927,,1.536214259,-2.453082459,,,,,,,,
192,65.52149,110.9523,,-1.383036222,-2.452813178,,,,,,,,
193,67.45905,132.8625,,0.495947629,-2.452719701,,,,,,,,
194,67.40985,146.3385,,1.651627924,-2.448341734,,,,,,,,
195,69.66158,145.5894,,1.587386301,-2.444871949,,,,,,,,
196,65.79799,120.8431,,-0.534816969,-2.438805399,,,,,,,,
197,66.10558,115.7813,,-0.968908874,-2.435310744,,,,,,,,
198,68.23987,128.3019,,0.104837838,-2.433187366,,,,,,,,
199,68.02403,127.4718,,0.033649784,-2.43096022,,,,,,,,
200,71.39044,127.8761,,0.068321908,-2.430085485,,,,,,,,
201,65.7316,121.4997,,-0.478507999,-2.429854794,,,,,,,,
202,66.43358,112.7148,,-1.23188703,-2.418760229,,,,,,,,
203,70.01309,135.002,,0.679427742,-2.416862396,,,,,,,,
204,69.48146,128.6789,,0.137168757,-2.416613696,,,,,,,,
205,68.62764,124.4062,,-0.229251189,-2.413432059,,,,,,,,
206,68.36275,140.026,,1.110277979,-2.411661148,,,,,,,,
207,68.39028,117.519,,-0.81988649,-2.411434746,,,,,,,,
208,68.77413,143.8737,,1.440250602,-2.408325146,,,,,,,,
209,69.9236,141.1703,,1.208411324,-2.407679386,,,,,,,,
210,71.55542,155.9414,,2.475157331,-2.403263685,,,,,,,,
211,68.44764,134.0093,,0.594295371,-2.401666006,,,,,,,,
212,66.71398,130.0975,,0.258825634,-2.401450752,,,,,,,,
213,66.68413,106.2265,,-1.788313302,-2.39925448,,,,,,,,
214,67.93699,112.0489,,-1.288993553,-2.399127557,,,,,,,,
215,68.89855,136.1884,,0.781171516,-2.396582248,,,,,,,,
216,67.29191,131.236,,0.35646158,-2.394379972,,,,,,,,
217,69.57212,131.3231,,0.363931138,-2.394227322,,,,,,,,
218,67.67479,119.5261,,-0.647760791,-2.391883545,,,,,,,,
219,69.04155,116.9965,,-0.864695258,-2.389751591,,,,,,,,
220,67.96765,138.5255,,0.981597489,-2.387436114,,,,,,,,
221,65.83982,109.6518,,-1.494565031,-2.387429253,,,,,,,,
222,65.77288,130.1569,,0.263919683,-2.384447433,,,,,,,,
223,71.14106,137.1114,,0.860326525,-2.382949234,,,,,,,,
224,67.83055,113.759,,-1.142338101,-2.379249616,,,,,,,,
225,65.0693,114.9725,,-1.038270274,-2.377123665,,,,,,,,
226,69.70745,127.7149,,0.054497653,-2.373693329,,,,,,,,
227,69.92983,121.9972,,-0.435843191,-2.371703734,,,,,,,,
228,66.11569,117.9607,,-0.782007002,-2.364667256,,,,,,,,
229,68.61364,127.7141,,0.054429046,-2.363877421,,,,,,,,
230,68.9976,117.9619,,-0.781904092,-2.359645244,,,,,,,,
231,66.79171,125.1554,,-0.16500099,-2.359424845,,,,,,,,
232,68.02363,141.1026,,1.20260548,-2.355792119,,,,,,,,
233,69.67258,145.4822,,1.578193,-2.355320448,,,,,,,,
234,71.82178,116.065,,-0.944579214,-2.351774337,,,,,,,,
235,72.74676,135.7458,,0.743214845,-2.351253784,,,,,,,,
236,67.27951,132.9248,,0.501290378,-2.348157048,,,,,,,,
237,67.41015,115.6622,,-0.9791227,-2.34578497,,,,,,,,
238,68.5315,114.3184,,-1.094364848,-2.344154703,,,,,,,,
239,68.47126,148.952,,1.875757521,-2.342147099,,,,,,,,
240,68.51867,142.1878,,1.295670503,-2.342024464,,,,,,,,
241,63.72529,134.104,,0.602416692,-2.341212332,,,,,,,,
242,67.70483,141.8926,,1.270354622,-2.340972209,,,,,,,,
243,69.47115,138.7444,,1.000370004,-2.339123257,,,,,,,,
244,66.70198,134.449,,0.632003342,-2.338518661,,,,,,,,
245,65.23126,117.0167,,-0.862962938,-2.338140466,,,,,,,,
246,69.89473,115.6752,,-0.978007841,-2.337119083,,,,,,,,
247,69.83048,134.7905,,0.661289838,-2.335366181,,,,,,,,
248,65.3979,120.5746,,-0.557843101,-2.333898855,,,,,,,,
249,68.32214,120.0835,,-0.599959055,-2.330027721,,,,,,,,
250,65.93895,84.3598,,-3.663566663,-2.328820242,,,,,,,,
251,70.09805,138.9394,,1.017092894,-2.324754436,,,,,,,,
252,66.05531,143.5245,,1.410303766,-2.322794857,,,,,,,,
253,68.23481,123.1347,,-0.338293003,-2.322176538,,,,,,,,
254,65.21758,115.5261,,-0.99079442,-2.321807777,,,,,,,,
255,69.16173,120.9844,,-0.522699306,-2.320144064,,,,,,,,
256,67.60064,120.6473,,-0.551608465,-2.319861061,,,,,,,,
257,67.28621,124.0352,,-0.261067558,-2.319217873,,,,,,,,
258,66.84323,117.2238,,-0.845202372,-2.314363948,,,,,,,,
259,68.08281,127.9598,,0.075499887,-2.314140976,,,,,,,,
260,66.56991,116.7527,,-0.885603157,-2.313978035,,,,,,,,
261,70.16973,121.9957,,-0.435971829,-2.312837448,,,,,,,,
262,67.85113,123.9952,,-0.264497894,-2.3126059,,,,,,,,
263,66.62309,108.855,,-1.562897329,-2.312442959,,,,,,,,
264,63.68816,104.6574,,-1.922876819,-2.31000742,,,,,,,,
265,68.0356,132.248,,0.443249088,-2.309827328,,,,,,,,
266,66.941,127.1834,,0.00891706,-2.309201291,,,,,,,,
267,66.26292,125.1209,,-0.167959655,-2.30908123,,,,,,,,
268,70.7301,133.322,,0.535353618,-2.308086432,,,,,,,,
269,70.70844,122.3364,,-0.40675394,-2.307940643,,,,,,,,
270,73.26872,130.2636,,0.273070105,-2.307288879,,,,,,,,
271,63.79021,116.7431,,-0.886426438,-2.306765753,,,,,,,,
272,67.84109,125.8534,,-0.105141622,-2.305290708,,,,,,,,
273,67.78058,100.627,,-2.268517503,-2.302006161,,,,,,,,
274,67.23901,118.4945,,-0.736229164,-2.301851796,,,,,,,,
275,66.75701,137.1255,,0.861535719,-2.301808917,,,,,,,,
276,69.03098,118.6991,,-0.718682994,-2.301748886,,,,,,,,
277,68.52652,124.1641,,-0.250013299,-2.300573996,,,,,,,,
278,64.65419,124.9442,,-0.183113166,-2.299724987,,,,,,,,
279,65.14295,126.3889,,-0.059217995,-2.298764493,,,,,,,,
280,66.74124,121.5255,,-0.476295432,-2.29724657,,,,,,,,
281,66.99923,133.2951,,0.533046716,-2.2960288,,,,,,,,
282,70.26611,127.4072,,0.028109791,-2.294373663,,,,,,,,
283,67.57666,125.08,,-0.171467174,-2.293378865,,,,,,,,
284,66.30582,102.8114,,-2.081186839,-2.292975801,,,,,,,,
285,68.90702,134.2212,,0.612467577,-2.292924346,,,,,,,,
286,65.60543,100.9758,,-2.238604971,-2.292375492,,,,,,,,
287,68.00189,145.8886,,1.613045216,-2.291646546,,,,,,,,
288,69.93715,155.3046,,2.420546378,-2.290591717,,,,,,,,
289,70.1459,138.7175,,0.998063103,-2.290205804,,,,,,,,
290,66.66364,116.2611,,-0.92776199,-2.290094318,,,,,,,,
291,69.40676,120.6087,,-0.55491874,-2.28980274,,,,,,,,
292,66.80598,114.4083,,-1.086655167,-2.28969983,,,,,,,,
293,67.70048,133.3406,,0.536948724,-2.28965695,,,,,,,,
294,69.13438,92.74955,,-2.944075067,-2.287813145,,,,,,,,
295,67.53769,131.7825,,0.40332855,-2.287221412,,,,,,,,
296,65.77912,118.3865,,-0.745491072,-2.284597204,,,,,,,,
297,66.25769,131.1466,,0.348794779,-2.283954016,,,,,,,,
298,67.39038,130.2033,,0.267898873,-2.283893986,,,,,,,,
299,64.94327,129.1836,,0.180451026,-2.283448042,,,,,,,,
300,69.25699,143.1445,,1.377715571,-2.283267949,,,,,,,,
301,69.07739,138.7307,,0.999195114,-2.278980029,,,,,,,,
302,69.64403,130.9528,,0.332174799,-2.277976655,,,,,,,,
303,69.07705,124.3032,,-0.238084305,-2.275592572,,,,,,,,
304,68.01304,135.3702,,0.711003987,-2.275283841,,,,,,,,
305,68.85664,124.1988,,-0.247037482,-2.274520592,,,,,,,,
306,63.19158,111.2389,,-1.358457863,-2.272350904,,,,,,,,
307,65.57591,129.4037,,0.199326451,-2.272119356,,,,,,,,
308,69.12101,127.7444,,0.057027526,-2.271707716,,,,,,,,
309,69.78765,121.3311,,-0.492966866,-2.270910163,,,,,,,,
310,67.48203,118.2183,,-0.759915636,-2.270498522,,,,,,,,
311,69.08809,123.3441,,-0.320335193,-2.269778152,,,,,,,,
312,68.5529,151.9118,,2.129585254,-2.268517503,,,,,,,,
313,68.21327,115.3108,,-1.009258205,-2.267282582,,,,,,,,
314,67.1012,122.3844,,-0.402637536,-2.266347815,,,,,,,,
315,71.23661,129.2323,,0.18462746,-2.265541686,,,,,,,,
316,69.11946,138.2824,,0.96074962,-2.264092369,,,,,,,,
317,65.49848,144.0565,,1.455927239,-2.260499092,,,,,,,,
318,66.58706,120.8482,,-0.534379601,-2.258192191,,,,,,,,
319,67.99831,113.3034,,-1.181409631,-2.257754823,,,,,,,,
320,72.57747,149.3227,,1.907548162,-2.257737671,,,,,,,,
321,67.97585,130.6373,,0.305118022,-2.256159717,,,,,,,,
322,66.62347,122.387,,-0.402414564,-2.255859562,,,,,,,,
323,67.29574,133.8677,,0.58215198,-2.252146223,,,,,,,,
324,65.95951,134.8336,,0.664986026,-2.250396752,,,,,,,,
325,66.54011,137.8363,,0.922492795,-2.246469017,,,,,,,,
326,68.07723,112.6812,,-1.234768512,-2.246125983,,,,,,,,
327,65.83291,121.1964,,-0.504518524,-2.245251247,,,,,,,,
328,69.23721,114.9262,,-1.042240888,-2.245131185,,,,,,,,
329,64.69413,110.3762,,-1.43244164,-2.245105458,,,,,,,,
330,69.21372,126.0337,,-0.089679381,-2.244042054,,,,,,,,
331,67.16792,118.7008,,-0.718537205,-2.243621838,,,,,,,,
332,67.8467,119.3108,,-0.666224576,-2.243484624,,,,,,,,
333,69.27389,150.7397,,2.029067825,-2.243467472,,,,,,,,
334,67.90547,121.1142,,-0.511567865,-2.241803759,,,,,,,,
335,67.076,118.4065,,-0.743775904,-2.241752304,,,,,,,,
336,70.01531,142.759,,1.344655706,-2.240122895,,,,,,,,
337,70.05454,145.6305,,1.590910972,-2.238759336,,,,,,,,
338,70.86714,127.3425,,0.022561222,-2.238604971,,,,,,,,
339,66.0586,115.9678,,-0.952914931,-2.237858873,,,,,,,,
340,65.23745,104.4441,,-1.941169087,-2.237129926,,,,,,,,
341,68.7413,138.4905,,0.978595945,-2.236761165,,,,,,,,
342,69.51946,145.5049,,1.580139716,-2.236761165,,,,,,,,
343,70.30764,124.4065,,-0.229225461,-2.235920733,,,,,,,,
344,67.29982,124.1866,,-0.248083735,-2.233167888,,,,,,,,
345,67.60582,126.1659,,-0.07834212,-2.233082129,,,,,,,,
346,67.85566,138.8125,,1.006210152,-2.232130211,,,,,,,,
347,66.46536,121.5515,,-0.474065713,-2.230466498,,,,,,,,
348,68.92071,114.2555,,-1.099759052,-2.229231577,,,,,,,,
349,68.46886,129.4022,,0.199197813,-2.2281939,,,,,,,,
350,69.5193,137.5583,,0.898651958,-2.227344892,,,,,,,,
351,70.23956,134.4996,,0.636342718,-2.226298639,,,,,,,,
352,67.85651,127.7103,,0.054103164,-2.226281488,,,,,,,,
353,68.00435,115.6709,,-0.978376602,-2.225003687,,,,,,,,
354,67.13983,131.5906,,0.386871511,-2.223099851,,,,,,,,
355,68.09931,127.5839,,0.043263302,-2.223056972,,,,,,,,
356,68.99077,125.7211,,-0.116487459,-2.222894031,,,,,,,,
357,69.32618,119.9885,,-0.608106104,-2.2213075,,,,,,,,
358,70.09286,140.8676,,1.182452254,-2.22044134,,,,,,,,
359,68.74304,136.9164,,0.843603636,-2.215656021,,,,,,,,
360,64.18633,118.4759,,-0.73782427,-2.213820791,,,,,,,,
361,66.09074,129.5516,,0.212010119,-2.211865499,,,,,,,,
362,69.24418,152.0714,,2.143272296,-2.211170856,,,,,,,,
363,69.66512,120.8646,,-0.532973163,-2.21085355,,,,,,,,
364,68.42721,136.1027,,0.77382202,-2.210407606,,,,,,,,
365,68.28613,130.0611,,0.255704028,-2.210339,,,,,,,,
366,69.37684,131.7743,,0.402625331,-2.208435163,,,,,,,,
367,68.35315,139.38,,1.054878048,-2.208186464,,,,,,,,
368,72.32489,168.229,,3.528922335,-2.207989219,,,,,,,,
369,70.37159,127.6446,,0.048468837,-2.207689065,,,,,,,,
370,65.72927,131.8008,,0.404897929,-2.205768077,,,,,,,,
371,66.49627,122.8561,,-0.362185295,-2.20483331,,,,,,,,
372,70.81339,140.2133,,1.126340529,-2.204756127,,,,,,,,
373,67.37579,142.6929,,1.338987075,-2.203444024,,,,,,,,
374,67.79709,137.4299,,0.887640578,-2.202775108,,,,,,,,
375,68.1607,126.0392,,-0.08920771,-2.197706786,,,,,,,,
376,68.85782,143.5985,,1.416649888,-2.196994992,,,,,,,,
377,67.71342,122.62,,-0.382432855,-2.196283197,,,,,,,,
378,64.66007,108.6044,,-1.584388386,-2.194876759,,,,,,,,
379,65.73721,100.6617,,-2.265541686,-2.190949024,,,,,,,,
380,68.42441,116.1397,,-0.938173061,-2.185057421,,,,,,,,
381,68.88946,140.5293,,1.153440185,-2.184319899,,,,,,,,
382,68.27367,125.6907,,-0.119094515,-2.184088351,,,,,,,,
383,69.18045,134.3329,,0.622046791,-2.183788197,,,,,,,,
384,72.60996,136.4649,,0.804883715,-2.183213616,,,,,,,,
385,66.04157,127.8822,,0.068845035,-2.181584206,,,,,,,,
386,69.2288,123.1361,,-0.338172941,-2.180580832,,,,,,,,
387,68.87697,116.3375,,-0.921210048,-2.180375012,,,,,,,,
388,66.46042,124.5581,,-0.216224487,-2.178651268,,,,,,,,
389,69.30444,125.7853,,-0.110981769,-2.176704552,,,,,,,,
390,67.58249,107.5905,,-1.671338835,-2.175006536,,,,,,,,
391,69.41816,143.0236,,1.36734738,-2.173831646,,,,,,,,
392,67.46867,118.7434,,-0.714883896,-2.171816323,,,,,,,,
393,66.44873,118.9856,,-0.69411321,-2.169835304,,,,,,,,
394,68.76185,131.8744,,0.411209747,-2.169440815,,,,,,,,
395,63.76881,119.3691,,-0.661224861,-2.168608959,,,,,,,,
396,69.03663,126.1223,,-0.082081186,-2.168308804,,,,,,,,
397,66.48966,126.6122,,-0.040068143,-2.168068681,,,,,,,,
398,66.74224,113.5597,,-1.159429751,-2.165238653,,,,,,,,
399,67.69394,115.8413,,-0.96376337,-2.164552586,,,,,,,,
400,66.69066,130.2738,,0.273944841,-2.163815064,,,,,,,,
401,67.02877,125.4542,,-0.139376378,-2.163394848,,,,,,,,
402,65.91096,117.1655,,-0.850202087,-2.163214755,,,,,,,,
403,70.0304,137.3184,,0.878078516,-2.163128997,,,,,,,,
404,69.26978,149.4447,,1.918010688,-2.162528688,,,,,,,,
405,70.07695,151.0695,,2.057350948,-2.160950733,,,,,,,,
406,64.90942,116.9994,,-0.864446558,-2.16077064,,,,,,,,
407,69.68744,138.1787,,0.951856473,-2.159758691,,,,,,,,
408,67.56524,127.621,,0.046444939,-2.159158382,,,,,,,,
409,63.85529,120.7514,,-0.542681015,-2.15897829,,,,,,,,
410,71.6189,144.2537,,1.472838797,-2.158155009,,,,,,,,
411,64.98993,105.7939,,-1.825412389,-2.155299254,,,,,,,,
412,64.60759,120.1567,,-0.59368154,-2.155033403,,,,,,,,
413,62.01666,109.0848,,-1.543190047,-2.154921917,,,,,,,,
414,65.28516,125.971,,-0.095056433,-2.154347336,,,,,,,,
415,67.70163,110.2325,,-1.444765124,-2.153609813,,,,,,,,
416,70.85794,134.4706,,0.633855724,-2.151182851,,,,,,,,
417,68.17075,115.5067,,-0.992458133,-2.150282387,,,,,,,,
418,67.45006,125.1086,,-0.169014483,-2.149124649,,,,,,,,
419,71.04224,116.4113,,-0.914881078,-2.148953132,,,,,,,,
420,67.83032,133.3944,,0.541562526,-2.14883307,,,,,,,,
421,67.15488,108.7478,,-1.572090631,-2.147546694,,,,,,,,
422,68.30289,134.3986,,0.627681119,-2.147486663,,,,,,,,
423,65.41208,131.2085,,0.354103224,-2.146431835,,,,,,,,
424,68.66755,130.8318,,0.321798032,-2.144913911,,,,,,,,
425,70.06733,127.0838,,0.000375522,-2.143773324,,,,,,,,
426,69.13413,119.4067,,-0.658000345,-2.143764748,,,,,,,,
427,67.02078,105.5616,,-1.845334067,-2.143395987,,,,,,,,
428,65.52274,134.4733,,0.634087272,-2.143147288,,,,,,,,
429,70.19808,132.6897,,0.481128577,-2.142821406,,,,,,,,
430,67.66866,126.058,,-0.087595452,-2.141517878,,,,,,,,
431,69.73257,126.3532,,-0.06227957,-2.135188908,,,,,,,,
432,67.61719,142.3603,,1.310463829,-2.13516318,,,,,,,,
433,70.79589,124.5873,,-0.213720341,-2.134219838,,,,,,,,
434,69.65804,122.3604,,-0.404695738,-2.133756742,,,,,,,,
435,66.73277,123.2298,,-0.330137379,-2.133473739,,,,,,,,
436,67.58008,131.4049,,0.370946175,-2.133310798,,,,,,,,
437,65.25317,124.3037,,-0.238041425,-2.130240647,,,,,,,,
438,70.71387,128.3836,,0.1118443,-2.128413993,,,,,,,,
439,71.27374,136.853,,0.838166553,-2.126561612,,,,,,,,
440,66.55913,118.0569,,-0.773757043,-2.12374016,,,,,,,,
441,68.04247,121.4969,,-0.478748122,-2.12307982,,,,,,,,
442,68.11699,119.2811,,-0.668771601,-2.121896354,,,,,,,,
443,71.2367,126.5545,,-0.045016403,-2.121862051,,,,,,,,
444,66.92387,129.2477,,0.185948139,-2.121441835,,,,,,,,
445,71.10381,134.7804,,0.660423678,-2.119838153,,,,,,,,
446,69.41466,146.0725,,1.628816187,-2.118251622,,,,,,,,
447,69.16807,162.4109,,3.029971346,-2.118165864,,,,,,,,
448,68.57725,130.1885,,0.266629649,-2.118165864,,,,,,,,
449,69.60315,132.1941,,0.43862671,-2.118037226,,,,,,,,
450,69.05087,127.4591,,0.032560652,-2.116742274,,,,,,,,
451,68.28699,125.3466,,-0.148603983,-2.116064783,,,,,,,,
452,69.25276,134.7559,,0.658322598,-2.115344412,,,,,,,,
453,68.23862,121.9395,,-0.440791451,-2.114246705,,,,,,,,
454,67.6868,125.6688,,-0.120972624,-2.112625871,,,,,,,,
455,68.84083,145.956,,1.618825333,-2.111708256,,,,,,,,
456,69.52061,119.9207,,-0.613920524,-2.11145098,,,,,,,,
457,66.97668,111.5093,,-1.335268789,-2.110893551,,,,,,,,
458,72.0053,138.676,,0.994504129,-2.109392779,,,,,,,,
459,67.44482,135.0151,,0.680551177,-2.108080675,,,,,,,,
460,66.06214,116.509,,-0.906502481,-2.107909158,,,,,,,,
461,65.5747,123.9575,,-0.267730986,-2.107874855,,,,,,,,
462,68.30171,136.952,,0.846656635,-2.107351729,,,,,,,,
463,71.02603,153.0797,,2.229742498,-2.107154484,,,,,,,,
464,70.76882,126.357,,-0.061953688,-2.105962442,,,,,,,,
465,67.50812,145.0614,,1.542105862,-2.105859532,,,,,,,,
466,69.50936,135.1739,,0.694169612,-2.105773774,,,,,,,,
467,66.4455,108.806,,-1.567099491,-2.103655541,,,,,,,,
468,68.5689,110.5155,,-1.420495494,-2.102840836,,,,,,,,
469,67.01296,138.2685,,0.959557578,-2.102574985,,,,,,,,
470,68.70004,119.5111,,-0.649047167,-2.099856444,,,,,,,,
471,68.23013,115.3214,,-1.008349166,-2.099084618,,,,,,,,
472,70.40713,132.3684,,0.453574401,-2.098767312,,,,,,,,
473,65.69989,93.99438,,-2.837320429,-2.098372823,,,,,,,,
474,65.7031,127.4051,,0.027929698,-2.097935456,,,,,,,,
475,68.48055,134.3024,,0.61943116,-2.097729635,,,,,,,,
476,66.62891,124.9721,,-0.180720506,-2.097026416,,,,,,,,
477,66.84285,124.072,,-0.257911648,-2.096434683,,,,,,,,
478,69.89734,133.5476,,0.554700714,-2.095834375,,,,,,,,
479,67.6543,134.1509,,0.606438761,-2.095045397,,,,,,,,
480,68.30917,130.2489,,0.271809457,-2.094427937,,,,,,,,
481,69.74848,138.0935,,0.944549857,-2.093021499,,,,,,,,
482,68.57906,126.6064,,-0.040565541,-2.091855184,,,,,,,,
483,68.14477,131.8076,,0.405481086,-2.091546454,,,,,,,,
484,67.98093,131.7363,,0.399366511,-2.08864782,,,,,,,,
485,64.82535,117.6261,,-0.810701765,-2.08629804,,,,,,,,
486,69.20785,126.1943,,-0.075906581,-2.083982563,,,,,,,,
487,69.2656,127.5132,,0.037200182,-2.083193585,,,,,,,,
488,70.9403,142.4785,,1.320600472,-2.083150706,,,,,,,,
489,69.07826,139.444,,1.060366586,-2.082679035,,,,,,,,
490,66.20183,110.3204,,-1.43722696,-2.081186839,,,,,,,,
491,71.05779,131.9541,,0.418044692,-2.079154364,,,,,,,,
492,68.99493,129.2037,,0.18217477,-2.078150991,,,,,,,,
493,70.96089,124.3513,,-0.233959325,-2.077979474,,,,,,,,
494,66.02496,126.5251,,-0.0475377,-2.077456348,,,,,,,,
495,69.8641,149.2303,,1.899624085,-2.077233376,,,,,,,,
496,66.82802,142.1577,,1.293089175,-2.077164769,,,,,,,,
497,69.09424,127.1436,,0.005503875,-2.076770281,,,,,,,,
498,66.81425,122.3353,,-0.406848274,-2.075886969,,,,,,,,
499,67.13183,112.6659,,-1.236080616,-2.075458177,,,,,,,,
500,64.57428,134.2647,,0.616198068,-2.075415298,,,,,,,,
501,68.68038,120.6936,,-0.547637851,-2.075252357,,,,,,,,
502,67.53724,115.783,,-0.968763085,-2.075055113,,,,,,,,
503,71.17732,128.6855,,0.137734763,-2.074986506,,,,,,,,
504,70.53514,134.7611,,0.658768541,-2.073099821,,,,,,,,
505,71.53411,118.3419,,-0.749315897,-2.071015892,,,,,,,,
506,66.77301,106.1557,,-1.794384998,-2.069000569,,,,,,,,
507,66.33636,126.3823,,-0.059784,-2.068254471,,,,,,,,
508,64.83095,114.3716,,-1.089802501,-2.065810356,,,,,,,,
509,68.38247,130.2787,,0.274365057,-2.064000854,,,,,,,,
510,68.05038,123.3066,,-0.323551133,-2.063314787,,,,,,,,
511,69.09149,122.8571,,-0.362099537,-2.062294262,,,,,,,,
512,69.91046,125.6932,,-0.118880119,-2.060810641,,,,,,,,
513,68.40737,111.7247,,-1.316796428,-2.059730085,,,,,,,,
514,68.32559,125.5516,,-0.131023509,-2.059627175,,,,,,,,
515,66.95555,119.9702,,-0.609675483,-2.058743863,,,,,,,,
516,70.54816,132.6043,,0.473804809,-2.058572347,,,,,,,,
517,69.37805,132.6738,,0.479765018,-2.057594701,,,,,,,,
518,67.52012,117.4521,,-0.825623728,-2.057311698,,,,,,,,
519,64.87142,101.8549,,-2.163214755,-2.056788572,,,,,,,,
520,69.13396,128.4418,,0.116835439,-2.056136808,,,,,,,,
521,68.81192,134.0414,,0.597048216,-2.055433589,,,,,,,,
522,67.56446,127.7511,,0.057602107,-2.054232971,,,,,,,,
523,68.16772,127.6172,,0.046119057,-2.053581207,,,,,,,,
524,65.80687,139.3971,,1.056344517,-2.050776907,,,,,,,,
525,64.92276,113.9381,,-1.12697877,-2.049653472,,,,,,,,
526,68.35584,147.5188,,1.752848572,-2.048109821,,,,,,,,
527,66.71546,132.6523,,0.477921212,-2.04621456,,,,,,,,
528,69.18196,132.8139,,0.491779771,-2.044988215,,,,,,,,
529,65.88795,105.0942,,-1.885417547,-2.04473094,,,,,,,,
530,66.03733,127.5187,,0.037671854,-2.0440706,,,,,,,,
531,69.44194,130.7305,,0.313110706,-2.043976266,,,,,,,,
532,67.14847,128.5815,,0.128815889,-2.042698465,,,,,,,,
533,65.69442,122.5699,,-0.386729352,-2.042381159,,,,,,,,
534,69.42723,157.2961,,2.591334246,-2.042038126,,,,,,,,
535,66.54503,121.1097,,-0.511953778,-2.040906115,,,,,,,,
536,69.04469,147.5061,,1.75175944,-2.039148067,,,,,,,,
537,67.62036,117.493,,-0.822116209,-2.039053733,,,,,,,,
538,69.59105,132.4472,,0.460332163,-2.038693548,,,,,,,,
539,68.12343,118.1774,,-0.763423155,-2.037810236,,,,,,,,
540,71.22641,123.7319,,-0.287078083,-2.036515284,,,,,,,,
541,66.43285,130.365,,0.281766008,-2.035957855,,,,,,,,
542,66.31808,122.8882,,-0.359432451,-2.035880672,,,,,,,,
543,68.02724,107.8693,,-1.647429391,-2.034774389,,,,,,,,
544,68.2876,118.591,,-0.727953478,-2.034602872,,,,,,,,
545,66.91609,125.6467,,-0.122867885,-2.034422779,,,,,,,,
546,71.77546,148.6016,,1.845707775,-2.034011139,,,,,,,,
547,66.04535,150.279,,1.989558927,-2.033899653,,,,,,,,
548,69.01455,127.0678,,-0.000996612,-2.032947735,,,,,,,,
549,68.70744,128.7122,,0.140024512,-2.03233885,,,,,,,,
550,65.012,118.4233,,-0.742335163,-2.032201636,,,,,,,,
551,66.05857,125.3879,,-0.14506216,-2.031146808,,,,,,,,
552,71.16403,149.2676,,1.902822874,-2.029594581,,,,,,,,
553,67.55274,107.3484,,-1.692100946,-2.029002848,,,,,,,,
554,68.83455,133.6992,,0.567701689,-2.028839907,,,,,,,,
555,68.11811,124.8508,,-0.191123001,-2.0287713,,,,,,,,
556,67.90528,112.7028,,-1.23291613,-2.028556904,,,,,,,,
557,67.64085,127.8407,,0.065286061,-2.027682168,,,,,,,,
558,69.78282,134.1615,,0.6073478,-2.026370065,,,,,,,,
559,67.99889,138.6031,,0.988252341,-2.025992728,,,,,,,,
560,69.41465,126.044,,-0.088796069,-2.024517683,,,,,,,,
561,70.42989,129.5856,,0.214925905,-2.024320439,,,,,,,,
562,67.67519,134.1054,,0.602536754,-2.024157498,,,,,,,,
563,67.88036,106.1251,,-1.797009205,-2.023788737,,,,,,,,
564,68.06905,127.0561,,-0.001999986,-2.023299914,,,,,,,,
565,66.99435,121.9241,,-0.442112131,-2.022974032,,,,,,,,
566,71.57689,150.7365,,2.028793398,-2.022210782,,,,,,,,
567,64.36564,116.0061,,-0.949630384,-2.021336046,,,,,,,,
568,67.93011,125.4748,,-0.137609755,-2.020332673,,,,,,,,
569,69.91863,131.6099,,0.388526649,-2.019775243,,,,,,,,
570,69.93864,129.0696,,0.170674567,-2.016953792,,,,,,,,
571,66.79766,129.1117,,0.174284996,-2.016430665,,,,,,,,
572,70.11119,148.1624,,1.808042683,-2.015487323,,,,,,,,
573,68.94814,105.388,,-1.860221727,-2.015032803,,,,,,,,
574,68.02886,110.5447,,-1.417991349,-2.013746427,,,,,,,,
575,69.36148,118.6402,,-0.723734164,-2.012777357,,,,,,,,
576,68.44886,122.8151,,-0.36570139,-2.012005532,,,,,,,,
577,65.70282,124.887,,-0.188018546,-2.010530487,,,,,,,,
578,69.55674,135.7695,,0.745247319,-2.009767237,,,,,,,,
579,65.84635,116.4563,,-0.911021949,-2.009347021,,,,,,,,
580,68.79983,125.3617,,-0.147309031,-2.009064018,,,,,,,,
581,69.03835,133.122,,0.518201936,-2.008463709,,,,,,,,
582,67.36352,138.3328,,0.965071844,-2.008034917,,,,,,,,
583,70.35788,124.4972,,-0.221447174,-2.008034917,,,,,,,,
584,69.88828,136.7205,,0.826803564,-2.006851451,,,,,,,,
585,65.15319,115.0153,,-1.034599814,-2.006654207,,,,,,,,
586,69.40907,132.6366,,0.476574805,-2.006362628,,,,,,,,
587,68.50874,143.1323,,1.376669319,-2.006285446,,,,,,,,
588,65.71552,134.7422,,0.657147707,-2.004887584,,,,,,,,
589,63.98308,122.6246,,-0.382038367,-2.004458792,,,,,,,,
590,70.07685,153.5634,,2.271223839,-2.002889413,,,,,,,,
591,68.42542,126.289,,-0.06778526,-2.002863685,,,,,,,,
592,68.23665,134.7206,,0.655295326,-2.001671644,,,,,,,,
593,67.82856,134.5987,,0.644841376,-2.000556784,,,,,,,,
594,66.31277,118.3945,,-0.744805005,-2.000033658,,,,,,,,
595,69.75128,121.2997,,-0.49565968,-1.997443754,,,,,,,,
596,65.70901,132.2844,,0.446370694,-1.992787073,,,,,,,,
597,66.88227,139.0617,,1.027581147,-1.992692738,,,,,,,,
598,67.2791,110.698,,-1.404844585,-1.992658435,,,,,,,,
599,70.63357,154.1073,,2.317867837,-1.992212491,,,,,,,,
600,69.9377,124.1592,,-0.250433515,-1.991929488,,,,,,,,
601,65.87671,134.5173,,0.637860642,-1.991543576,,,,,,,,
602,72.44694,138.2622,,0.9590173,-1.988413394,,,,,,,,
603,70.07052,149.0801,,1.886743173,-1.987066987,,,,,,,,
604,67.68486,127.0075,,-0.006167844,-1.98679256,,,,,,,,
605,66.1151,117.8222,,-0.793884541,-1.986278009,,,,,,,,
606,69.94355,148.9096,,1.872121364,-1.98602931,,,,,,,,
607,68.24317,128.2151,,0.097394008,-1.983696681,,,,,,,,
608,68.80144,129.6944,,0.22425642,-1.981106778,,,,,,,,
609,66.61818,125.5674,,-0.129668526,-1.980943837,,,,,,,,
610,70.18701,128.7947,,0.147099581,-1.980017646,,,,,,,,
611,65.58971,124.187,,-0.248049431,-1.980000494,,,,,,,,
612,68.69566,151.4167,,2.087126267,-1.979580278,,,,,,,,
613,64.88639,106.9803,,-1.723668615,-1.978851331,,,,,,,,
614,69.81993,145.6221,,1.590190601,-1.97858548,,,,,,,,
615,66.33962,121.5926,,-0.470541043,-1.97786511,,,,,,,,
616,70.4434,130.9386,,0.33095703,-1.977770775,,,,,,,,
617,69.99163,135.6203,,0.732452165,-1.977050405,,,,,,,,
618,70.13617,123.9315,,-0.269960704,-1.976484399,,,,,,,,
619,67.1793,131.9955,,0.421595091,-1.975858363,,,,,,,,
620,68.2034,117.484,,-0.822888034,-1.975446723,,,,,,,,
621,67.76121,129.6577,,0.221109086,-1.974734928,,,,,,,,
622,64.79753,122.3706,,-0.403821002,-1.972316541,,,,,,,,
623,66.47871,114.5867,,-1.071355867,-1.970507038,,,,,,,,
624,66.98337,116.5401,,-0.903835395,-1.970224036,,,,,,,,
625,65.69991,139.4307,,1.059225999,-1.970018215,,,,,,,,
626,66.82705,123.4822,,-0.308491957,-1.968637505,,,,,,,,
627,66.35141,132.5492,,0.469079521,-1.96838023,,,,,,,,
628,70.13491,143.4013,,1.39973833,-1.967694163,,,,,,,,
629,70.11565,132.9429,,0.502842605,-1.967342553,,,,,,,,
630,64.56145,98.8972,,-2.416862396,-1.966810851,,,,,,,,
631,68.15724,122.4342,,-0.398366767,-1.966304876,,,,,,,,
632,67.1475,104.6767,,-1.921221682,-1.965610233,,,,,,,,
633,70.88927,142.7847,,1.346859697,-1.964375312,,,,,,,,
634,68.16218,130.9283,,0.330073718,-1.962685872,,,,,,,,
635,71.19657,143.827,,1.436245684,-1.962505779,,,,,,,,
636,67.92444,142.2832,,1.303851855,-1.960181726,,,,,,,,
637,65.30204,107.9441,,-1.641014662,-1.95976151,,,,,,,,
638,66.40756,105.6891,,-1.83439987,-1.959718631,,,,,,,,
639,71.30647,125.4007,,-0.143964453,-1.959118322,,,,,,,,
640,69.05997,106.4195,,-1.77176193,-1.958843895,,,,,,,,
641,65.95442,118.5371,,-0.732575856,-1.957523216,,,,,,,,
642,69.63776,136.7836,,0.83221492,-1.957034393,,,,,,,,
643,71.10495,145.9328,,1.616835738,-1.957000089,,,,,,,,
644,66.21851,129.637,,0.219333887,-1.956245415,,,,,,,,
645,66.13469,108.4955,,-1.593727477,-1.955902382,,,,,,,,
646,67.7851,121.2537,,-0.499604567,-1.954418761,,,,,,,,
647,66.67737,135.7399,,0.74270887,-1.954264396,,,,,,,,
648,69.99408,137.5026,,0.893875214,-1.952832231,,,,,,,,
649,71.1441,124.0052,,-0.26364031,-1.952660714,,,,,,,,
650,68.63927,128.8613,,0.152811091,-1.952574955,,,,,,,,
651,69.08548,133.6811,,0.566149462,-1.952412014,,,,,,,,
652,67.97389,106.5185,,-1.763271848,-1.950919818,,,,,,,,
653,65.94809,113.0398,,-1.204015547,-1.950774029,,,,,,,,
654,66.02102,125.9639,,-0.095665318,-1.950242327,,,,,,,,
655,71.23576,140.2945,,1.133304111,-1.949804959,,,,,,,,
656,67.52674,143.229,,1.384962157,-1.949796383,,,,,,,,
657,71.06935,145.8063,,1.6059873,-1.94899883,,,,,,,,
658,68.27178,128.1697,,0.093500577,-1.948638645,,,,,,,,
659,67.31932,134.1839,,0.609268789,-1.948295611,,,,,,,,
660,68.98848,140.2166,,1.126623531,-1.948115518,,,,,,,,
661,68.404,146.3453,,1.652211081,-1.947703878,,,,,,,,
662,67.092,132.0784,,0.428704462,-1.946211682,,,,,,,,
663,66.76866,122.13,,-0.424454475,-1.945851496,,,,,,,,
664,65.64636,131.4693,,0.376469017,-1.945800041,,,,,,,,
665,65.34105,129.5167,,0.209017151,-1.944685182,,,,,,,,
666,68.18299,125.7451,,-0.114429257,-1.944024842,,,,,,,,
667,70.65924,153.1384,,2.234776516,-1.942609829,,,,,,,,
668,65.94401,124.5559,,-0.216413155,-1.942541222,,,,,,,,
669,69.62792,134.8225,,0.664034107,-1.942395433,,,,,,,,
670,68.29965,115.3877,,-1.002663383,-1.942309674,,,,,,,,
671,70.06075,117.9618,,-0.781912667,-1.941169087,,,,,,,,
672,68.43602,124.5647,,-0.215658481,-1.940114259,,,,,,,,
673,69.27012,134.4043,,0.628169942,-1.93930813,,,,,,,,
674,67.70511,129.3092,,0.191222281,-1.939290978,,,,,,,,
675,70.89315,133.1423,,0.519942832,-1.93920522,,,,,,,,
676,70.54313,147.3609,,1.739307319,-1.938990824,,,,,,,,
677,71.58086,155.0132,,2.395556378,-1.938579183,,,,,,,,
678,68.42301,126.2905,,-0.067656622,-1.938536304,,,,,,,,
679,69.35781,134.4605,,0.632989564,-1.93615222,,,,,,,,
680,70.445,134.0296,,0.596036266,-1.93615222,,,,,,,,
681,67.38153,128.9248,,0.15825675,-1.936117917,,,,,,,,
682,67.50767,123.0543,,-0.345187979,-1.93563767,,,,,,,,
683,68.52054,112.1788,,-1.277853536,-1.935569063,,,,,,,,
684,66.80858,111.7443,,-1.315115564,-1.935191726,,,,,,,,
685,72.38532,148.4615,,1.833693022,-1.935028785,,,,,,,,
686,68.51642,136.7459,,0.828981828,-1.934651448,,,,,,,,
687,70.79791,133.2068,,0.525474249,-1.934539962,,,,,,,,
688,66.21905,116.8855,,-0.874214441,-1.934522811,,,,,,,,
689,68.31167,124.8542,,-0.190831422,-1.9333908,,,,,,,,
690,67.1715,121.5809,,-0.471544416,-1.933193555,,,,,,,,
691,67.7714,123.197,,-0.332950255,-1.932138727,,,,,,,,
692,67.47328,137.1255,,0.861535719,-1.93207012,,,,,,,,
693,67.77463,121.4941,,-0.478988246,-1.93002907,,,,,,,,
694,69.20099,150.9398,,2.046228082,-1.929634582,,,,,,,,
695,70.04297,142.3009,,1.305369779,-1.929325851,,,,,,,,
696,70.56979,134.7527,,0.658048171,-1.928991394,,,,,,,,
697,66.45379,133.5585,,0.555635481,-1.927602107,,,,,,,,
698,67.68132,136.0895,,0.772690009,-1.926778827,,,,,,,,
699,65.75638,95.20216,,-2.73374314,-1.926641613,,,,,,,,
700,69.3549,119.7404,,-0.629382765,-1.925869787,,,,,,,,
701,70.5902,152.9146,,2.215583785,-1.925097962,,,,,,,,
702,67.27626,140.1991,,1.125122759,-1.925063658,,,,,,,,
703,68.48853,145.2503,,1.558305625,-1.924926445,,,,,,,,
704,67.02188,119.4855,,-0.651242583,-1.924660594,,,,,,,,
705,65.77613,123.512,,-0.305936356,-1.922876819,,,,,,,,
706,65.96579,110.6754,,-1.406782725,-1.921487533,,,,,,,,
707,68.18868,111.4951,,-1.336486559,-1.921221682,,,,,,,,
708,72.08595,139.4849,,1.063874105,-1.920930103,,,,,,,,
709,66.85358,133.088,,0.51528615,-1.920750011,,,,,,,,
710,69.10929,133.5196,,0.552299479,-1.919172056,,,,,,,,
711,64.5909,112.7698,,-1.227170317,-1.919017691,,,,,,,,
712,67.03849,124.7975,,-0.195693924,-1.918991963,,,,,,,,
713,68.99156,123.4224,,-0.31362031,-1.918949084,,,,,,,,
714,70.59872,142.0921,,1.287463424,-1.918134379,,,,,,,,
715,70.08988,116.2814,,-0.926021095,-1.916599304,,,,,,,,
716,65.6844,131.1256,,0.346993852,-1.915244321,,,,,,,,
717,67.0982,131.2493,,0.357602167,-1.914566829,,,,,,,,
718,66.03932,127.2422,,0.013959654,-1.914489647,,,,,,,,
719,69.26423,122.4523,,-0.39681454,-1.914232372,,,,,,,,
720,66.61351,115.2431,,-1.015064049,-1.914078007,,,,,,,,
721,68.11738,126.9532,,-0.010824526,-1.911856864,,,,,,,,
722,69.73059,143.4439,,1.403391639,-1.911779681,,,,,,,,
723,64.02042,125.377,,-0.145996927,-1.911505254,,,,,,,,
724,66.23753,109.0095,,-1.549647655,-1.911342313,,,,,,,,
725,72.46761,139.2411,,1.042966205,-1.911119341,,,,,,,,
726,66.21938,102.182,,-2.13516318,-1.910519033,,,,,,,,
727,71.2978,144.3898,,1.484510516,-1.909935875,,,,,,,,
728,63.1255,83.08527,,-3.772868326,-1.909807238,,,,,,,,
729,70.93034,145.3938,,1.570611957,-1.9096786,,,,,,,,
730,68.25489,134.9267,,0.672970133,-1.909275536,,,,,,,,
731,64.78014,134.678,,0.651642018,-1.908375072,,,,,,,,
732,65.42982,111.4963,,-1.336383649,-1.908212131,,,,,,,,
733,68.91361,119.7951,,-0.62469178,-1.908152101,,,,,,,,
734,64.96937,95.70426,,-2.690683844,-1.90483325,,,,,,,,
735,66.15237,117.159,,-0.850759517,-1.904773219,,,,,,,,
736,65.98386,127.2356,,0.013393648,-1.904147183,,,,,,,,
737,69.2435,144.9205,,1.530022502,-1.903152385,,,,,,,,
738,68.31982,122.8464,,-0.363017152,-1.900768302,,,,,,,,
739,70.11607,134.19,,0.609791915,-1.900373813,,,,,,,,
740,68.63521,124.9776,,-0.180248835,-1.900313782,,,,,,,,
741,67.74289,135.8441,,0.751644896,-1.900125114,,,,,,,,
742,64.58641,120.8222,,-0.53660932,-1.899739201,,,,,,,,
743,64.66165,125.0174,,-0.17683565,-1.899361864,,,,,,,,
744,65.90771,133.5474,,0.554683563,-1.898907344,,,,,,,,
745,65.77649,124.5583,,-0.216207335,-1.898838738,,,,,,,,
746,67.1506,135.9691,,0.762364697,-1.896934901,,,,,,,,
747,72.24339,143.5738,,1.414531656,-1.896403199,,,,,,,,
748,68.73199,130.5725,,0.299560877,-1.895811466,,,,,,,,
749,67.57019,127.192,,0.009654582,-1.894979609,,,,,,,,
750,70.36234,141.2372,,1.214148562,-1.894739486,,,,,,,,
751,63.62233,107.4236,,-1.685651913,-1.892209613,,,,,,,,
752,66.20711,122.3234,,-0.407868799,-1.891960913,,,,,,,,
753,66.22114,111.6055,,-1.327018831,-1.891866579,,,,,,,,
754,70.0722,137.8915,,0.927226659,-1.891026147,,,,,,,,
755,69.6563,142.8742,,1.354535074,-1.889945591,,,,,,,,
756,66.25043,114.4349,,-1.084373993,-1.888221847,,,,,,,,
757,68.0704,128.2736,,0.102410875,-1.88753578,,,,,,,,
758,67.14808,134.5725,,0.642594506,-1.886926895,,,,,,,,
759,68.76609,140.1034,,1.11691568,-1.885829187,,,,,,,,
760,68.12075,121.977,,-0.437575511,-1.885417547,,,,,,,,
761,65.72987,111.4248,,-1.342515375,-1.885374668,,,,,,,,
762,69.17439,135.0756,,0.68573956,-1.884182626,,,,,,,,
763,70.36351,132.9826,,0.506247214,-1.883273587,,,,,,,,
764,70.78557,117.7566,,-0.799510293,-1.883136373,,,,,,,,
765,70.88083,134.9877,,0.678201396,-1.882956281,,,,,,,,
766,66.62148,151.6121,,2.10388346,-1.882716157,,,,,,,,
767,69.9829,128.9287,,0.158591208,-1.882476033,,,,,,,,
768,66.92866,120.1575,,-0.593612933,-1.87998904,,,,,,,,
769,71.45806,125.6007,,-0.126812771,-1.879397307,,,,,,,,
770,69.66344,127.8292,,0.064299839,-1.879200062,,,,,,,,
771,69.30943,136.1354,,0.77662632,-1.878745543,,,,,,,,
772,66.59775,116.2841,,-0.925789547,-1.877725018,,,,,,,,
773,64.20209,127.0777,,-0.000147604,-1.877587804,,,,,,,,
774,68.23051,125.7165,,-0.116881948,-1.877176164,,,,,,,,
775,70.09021,121.0749,,-0.51493817,-1.876824554,,,,,,,,
776,70.9755,122.7382,,-0.372296212,-1.876027001,,,,,,,,
777,64.93134,119.4545,,-0.653901093,-1.875478147,,,,,,,,
778,66.90106,132.9048,,0.49957521,-1.87514369,,,,,,,,
779,69.19803,132.8687,,0.496479332,-1.875015052,,,,,,,,
780,68.4149,124.3486,,-0.234190873,-1.874955021,,,,,,,,
781,66.3163,132.2198,,0.440830701,-1.874774929,,,,,,,,
782,72.13467,142.804,,1.348514834,-1.874620563,,,,,,,,
783,65.74613,129.605,,0.216589618,-1.874491926,,,,,,,,
784,69.96677,128.5326,,0.124622303,-1.874371864,,,,,,,,
785,65.11417,112.9919,,-1.208123375,-1.87407171,,,,,,,,
786,67.43294,122.0795,,-0.428785274,-1.873299884,,,,,,,,
787,66.39785,118.396,,-0.744676367,-1.872828213,,,,,,,,
788,67.18769,130.1299,,0.261604206,-1.872536634,,,,,,,,
789,67.68597,111.6824,,-1.320424009,-1.871541837,,,,,,,,
790,67.77469,142.2452,,1.300593036,-1.871241682,,,,,,,,
791,63.62937,122.6049,,-0.383727807,-1.870667101,,,,,,,,
792,66.447,122.8198,,-0.365298326,-1.870178278,,,,,,,,
793,71.9233,119.1123,,-0.68324762,-1.869577969,,,,,,,,
794,67.92214,139.4335,,1.059466123,-1.869140601,,,,,,,,
795,68.01143,141.3353,,1.222561461,-1.868514565,,,,,,,,
796,67.76524,119.787,,-0.625386423,-1.868377351,,,,,,,,
797,69.19791,136.326,,0.792971873,-1.866807973,,,,,,,,
798,67.00109,118.4099,,-0.743484325,-1.866645032,,,,,,,,
799,67.09659,137.692,,0.910117857,-1.86631915,,,,,,,,
800,69.85144,129.078,,0.171394938,-1.866310574,,,,,,,,
801,67.42782,123.4642,,-0.310035608,-1.865890358,,,,,,,,
802,68.1104,115.4311,,-0.998941468,-1.865838903,,,,,,,,
803,68.29433,129.931,,0.244546859,-1.865290049,,,,,,,,
804,69.45176,135.9563,,0.761266989,-1.864861257,,,,,,,,
805,69.08219,127.8134,,0.062944856,-1.864784074,,,,,,,,
806,70.91753,139.1014,,1.030985756,-1.864758347,,,,,,,,
807,64.20566,109.2132,,-1.532178668,-1.864209493,,,,,,,,
808,71.10315,124.6154,,-0.21131053,-1.864183765,,,,,,,,
809,72.08523,136.221,,0.78396724,-1.863574881,,,,,,,,
810,66.15119,120.4722,,-0.566624762,-1.863506274,,,,,,,,
811,67.52898,116.1659,,-0.935926191,-1.862614386,,,,,,,,
812,67.17586,115.5093,,-0.992235161,-1.861979774,,,,,,,,
813,72.92955,141.9961,,1.279230617,-1.861928319,,,,,,,,
814,65.54112,135.4869,,0.721011993,-1.860787732,,,,,,,,
815,69.08487,135.1305,,0.690447697,-1.860350364,,,,,,,,
816,65.28991,108.2494,,-1.614832621,-1.860221727,,,,,,,,
817,68.53447,125.1277,,-0.167376498,-1.860204575,,,,,,,,
818,71.32802,142.8947,,1.356293121,-1.859732904,,,,,,,,
819,66.88095,128.2978,,0.104486229,-1.859527084,,,,,,,,
820,67.91196,128.268,,0.101930628,-1.858823865,,,,,,,,
821,67.00238,103.5665,,-2.016430665,-1.857854795,,,,,,,,
822,68.27584,156.1069,,2.489350348,-1.857065817,,,,,,,,
823,66.20276,104.9661,,-1.896403199,-1.856757087,,,,,,,,
824,64.24214,121.6365,,-0.466776249,-1.856268264,,,,,,,,
825,67.43738,132.0066,,0.422547009,-1.855933806,,,,,,,,
826,64.50081,118.4079,,-0.743655842,-1.85454452,,,,,,,,
827,68.89607,135.3898,,0.712684852,-1.853498268,,,,,,,,
828,70.32908,140.6633,,1.164931812,-1.852263347,,,,,,,,
829,64.31742,111.6703,,-1.321461686,-1.852074678,,,,,,,,
830,67.11253,128.0328,,0.081760251,-1.851560128,,,,,,,,
831,68.01206,130.4737,,0.291087947,-1.851388611,,,,,,,,
832,68.25267,128.2127,,0.097188188,-1.850719695,,,,,,,,
833,67.76873,142.8202,,1.34990412,-1.850539603,,,,,,,,
834,67.44291,123.0804,,-0.342949685,-1.84908171,,,,,,,,
835,65.73581,117.8771,,-0.789176405,-1.848095488,,,,,,,,
836,69.64372,130.9274,,0.329996536,-1.847778182,,,,,,,,
837,71.92818,129.1735,,0.179584866,-1.846157348,,,,,,,,
838,69.39435,144.5784,,1.500684551,-1.846088741,,,,,,,,
839,67.14717,115.8635,,-0.961859533,-1.846011559,,,,,,,,
840,69.1469,116.5322,,-0.904512886,-1.845334067,,,,,,,,
841,66.90594,141.9947,,1.279110555,-1.843413079,,,,,,,,
842,67.838,132.1304,,0.4331639,-1.840788872,,,,,,,,
843,68.09614,135.2607,,0.701613441,-1.839939864,,,,,,,,
844,66.14093,127.0684,,-0.000945157,-1.839914136,,,,,,,,
845,71.16386,129.844,,0.237085878,-1.838919339,,,,,,,,
846,67.55757,134.5066,,0.636943027,-1.838258999,,,,,,,,
847,70.01279,121.3609,,-0.490411266,-1.838147513,,,,,,,,
848,72.56431,143.1486,,1.378067181,-1.837212746,,,,,,,,
849,66.60224,124.7741,,-0.197700671,-1.836406617,,,,,,,,
850,68.51802,120.1546,,-0.593861632,-1.835489002,,,,,,,,
851,66.34638,139.4163,,1.057991078,-1.83439987,,,,,,,,
852,69.02692,131.6743,,0.39404949,-1.83433984,,,,,,,,
853,69.12446,131.07,,0.342225685,-1.833979654,,,,,,,,
854,68.24578,129.8914,,0.241150826,-1.833962503,,,,,,,,
855,68.4869,123.344,,-0.320343769,-1.833242132,,,,,,,,
856,70.68261,137.5314,,0.896345056,-1.833113494,,,,,,,,
857,70.35969,136.8886,,0.841219552,-1.832950553,,,,,,,,
858,67.62401,118.4024,,-0.744127513,-1.832804764,,,,,,,,
859,69.4463,116.2441,,-0.929219883,-1.832598944,,,,,,,,
860,67.92486,124.8433,,-0.191766189,-1.832564641,,,,,,,,
861,68.39347,120.9809,,-0.522999461,-1.831586995,,,,,,,,
862,66.31812,105.1208,,-1.883136373,-1.831166779,,,,,,,,
863,71.22882,145.4377,,1.574376751,-1.82980322,,,,,,,,
864,65.29169,108.1912,,-1.61982376,-1.829134304,,,,,,,,
865,66.00287,130.3778,,0.282863715,-1.828997091,,,,,,,,
866,67.61775,117.5157,,-0.820169493,-1.827582077,,,,,,,,
867,69.10276,135.8762,,0.754397741,-1.826664462,,,,,,,,
868,68.99743,127.5126,,0.037148727,-1.82658728,,,,,,,,
869,69.07531,151.3998,,2.08567695,-1.826372884,,,,,,,,
870,68.34086,112.4799,,-1.252031679,-1.826081305,,,,,,,,
871,71.68196,156.7554,,2.544964675,-1.825412389,,,,,,,,
872,68.77664,138.2098,,0.95452356,-1.82470917,,,,,,,,
873,66.18191,109.5685,,-1.501708706,-1.822616665,,,,,,,,
874,72.37092,139.9742,,1.105835693,-1.822453724,,,,,,,,
875,66.85155,124.5873,,-0.213720341,-1.822453724,,,,,,,,
876,65.75688,130.5023,,0.293540637,-1.821604716,,,,,,,,
877,69.69245,151.0783,,2.058105622,-1.821398896,,,,,,,,
878,66.27915,108.7722,,-1.569998125,-1.821098742,,,,,,,,
879,66.47752,105.9927,,-1.808363618,-1.82087577,,,,,,,,
880,68.71912,143.4301,,1.402208173,-1.82077286,,,,,,,,
881,68.29244,114.7434,,-1.057917525,-1.820138247,,,,,,,,
882,67.66696,123.7736,,-0.283501957,-1.819923851,,,,,,,,
883,71.29885,139.4769,,1.063188038,-1.819795214,,,,,,,,
884,67.07369,115.8201,,-0.965581448,-1.817445433,,,,,,,,
885,70.68048,146.5682,,1.67132663,-1.817299644,,,,,,,,
886,71.40114,153.9993,,2.308605929,-1.816965186,,,,,,,,
887,71.00392,137.5899,,0.901361923,-1.815876055,,,,,,,,
888,66.2799,125.9287,,-0.098684014,-1.815867479,,,,,,,,
889,68.05383,139.6939,,1.081797612,-1.815584476,,,,,,,,
890,64.16346,126.3585,,-0.06182505,-1.815490142,,,,,,,,
891,66.87966,113.9307,,-1.127613382,-1.81506135,,,,,,,,
892,70.52968,129.7605,,0.229925051,-1.814769771,,,,,,,,
893,65.45595,116.1925,,-0.933645017,-1.814521072,,,,,,,,
894,69.11331,139.1294,,1.033386991,-1.814323827,,,,,,,,
895,67.94221,126.9815,,-0.008397563,-1.814220917,,,,,,,,
896,67.2132,125.8352,,-0.106702425,-1.814186614,,,,,,,,
897,67.6372,113.524,,-1.162491327,-1.814160886,,,,,,,,
898,70.09365,123.2372,,-0.329502767,-1.813920763,,,,,,,,
899,64.41354,123.0554,,-0.345093645,-1.811322283,,,,,,,,
900,69.77698,128.133,,0.090353243,-1.811305131,,,,,,,,
901,66.58181,127.9357,,0.073433109,-1.811279404,,,,,,,,
902,68.14995,110.4678,,-1.42458617,-1.811125039,,,,,,,,
903,66.18165,127.9364,,0.07349314,-1.809401295,,,,,,,,
904,66.79412,118.1678,,-0.764246436,-1.808620893,,,,,,,,
905,67.1657,129.7243,,0.226820596,-1.808595166,,,,,,,,
906,68.01904,130.6094,,0.302725362,-1.808363618,,,,,,,,
907,66.95837,105.0414,,-1.889945591,-1.806039565,,,,,,,,
908,68.70397,122.6299,,-0.381583847,-1.804084274,,,,,,,,
909,69.68057,138.3259,,0.964480111,-1.803826998,,,,,,,,
910,66.52793,107.7381,,-1.658680894,-1.803818422,,,,,,,,
911,66.46981,141.4417,,1.231686156,-1.803475389,,,,,,,,
912,71.44643,153.6966,,2.282646859,-1.803303872,,,,,,,,
913,66.62648,134.5551,,0.641102309,-1.803192386,,,,,,,,
914,64.01015,109.6593,,-1.493921843,-1.802729291,,,,,,,,
915,65.03312,117.2029,,-0.846994723,-1.802068951,,,,,,,,
916,66.77216,124.2843,,-0.239705138,-1.801562976,,,,,,,,
917,68.91932,125.2193,,-0.159521028,-1.799564805,,,,,,,,
918,71.22926,133.2256,,0.527086507,-1.798955921,,,,,,,,
919,71.10332,122.6042,,-0.383787838,-1.798844435,,,,,,,,
920,69.80699,134.8652,,0.667695991,-1.798638615,,,,,,,,
921,67.09127,111.4506,,-1.340302808,-1.798475674,,,,,,,,
922,67.27958,116.8458,,-0.87761905,-1.798226974,,,,,,,,
923,71.86593,143.1527,,1.37841879,-1.798072609,,,,,,,,
924,67.20197,99.92383,,-2.328820242,-1.798064033,,,,,,,,
925,68.44108,127.9232,,0.072361129,-1.797969699,,,,,,,,
926,67.20278,136.658,,0.821443664,-1.797043508,,,,,,,,
927,69.36588,145.3947,,1.570689139,-1.797009205,,,,,,,,
928,69.0416,126.6818,,-0.034099357,-1.796983477,,,,,,,,
929,65.9056,128.1983,,0.095953267,-1.795722829,,,,,,,,
930,66.44766,122.8328,,-0.364183466,-1.795422674,,,,,,,,
931,66.08009,133.2571,,0.529787897,-1.794899548,,,,,,,,
932,69.35367,116.7606,,-0.884925666,-1.794762335,,,,,,,,
933,70.83359,144.0455,,1.454983896,-1.794599394,,,,,,,,
934,67.664,132.5153,,0.466172311,-1.794384998,,,,,,,,
935,65.30966,123.9832,,-0.265526995,-1.793578869,,,,,,,,
936,66.66817,113.1423,,-1.195225311,-1.791109027,,,,,,,,
937,66.93271,123.9512,,-0.268271264,-1.790903206,,,,,,,,
938,67.73938,133.9787,,0.591671164,-1.790431535,,,,,,,,
939,64.27722,128.1519,,0.091974077,-1.790037046,,,,,,,,
940,66.83442,121.2878,,-0.496680205,-1.789754044,,,,,,,,
941,65.89728,122.7107,,-0.374654568,-1.789282372,,,,,,,,
942,67.6564,125.4136,,-0.142858169,-1.788707791,,,,,,,,
943,68.68966,124.8761,,-0.188953313,-1.788459092,,,,,,,,
944,66.08003,116.5903,,-0.899530323,-1.788313302,,,,,,,,
945,66.91344,129.889,,0.240945006,-1.788244696,,,,,,,,
946,69.48392,123.889,,-0.273605437,-1.788167513,,,,,,,,
947,68.60001,137.6571,,0.907124888,-1.787953117,,,,,,,,
948,69.21225,130.8805,,0.325974467,-1.787730145,,,,,,,,
949,67.63342,141.9706,,1.277043777,-1.787550053,,,,,,,,
950,65.73405,125.7334,,-0.115432631,-1.787215595,,,,,,,,
951,66.09947,104.4108,,-1.944024842,-1.786795379,,,,,,,,
952,67.65293,117.0685,,-0.858520653,-1.786392314,,,,,,,,
953,67.59619,131.7669,,0.401990719,-1.785346062,,,,,,,,
954,69.57859,125.4738,,-0.137695513,-1.784342688,,,,,,,,
955,66.08879,129.5734,,0.213879653,-1.784274081,,,,,,,,
956,70.08026,130.1053,,0.259494549,-1.783356467,,,,,,,,
957,65.00956,131.9305,,0.416020794,-1.783305011,,,,,,,,
958,69.16464,142.4645,,1.319399855,-1.782327366,,,,,,,,
959,69.61276,127.6431,,0.048340199,-1.782258759,,,,,,,,
960,71.48367,153.3153,,2.249947179,-1.78186427,,,,,,,,
961,69.47413,126.7609,,-0.027315867,-1.781829967,,,,,,,,
962,69.0027,114.0258,,-1.119457758,-1.780938079,,,,,,,,
963,69.5581,133.9684,,0.590787852,-1.780766563,,,,,,,,
964,68.63746,127.5869,,0.043520577,-1.780372074,,,,,,,,
965,67.20262,126.4859,,-0.050899429,-1.780217709,,,,,,,,
966,66.07614,120.7651,,-0.541506125,-1.779883251,,,,,,,,
967,66.18342,126.6479,,-0.037006567,-1.779840372,,,,,,,,
968,70.80778,133.0747,,0.514145563,-1.779797493,,,,,,,,
969,67.158,125.9649,,-0.095579559,-1.779746038,,,,,,,,
970,65.2973,121.3206,,-0.49386733,-1.779703158,,,,,,,,
971,69.23494,129.7824,,0.23180316,-1.779505914,,,,,,,,
972,68.90768,130.0549,,0.255172326,-1.779068546,,,,,,,,
973,72.3478,123.4005,,-0.315498419,-1.777344802,,,,,,,,
974,68.29557,137.2791,,0.87470821,-1.776795948,,,,,,,,
975,68.34735,127.7554,,0.057970868,-1.776341429,,,,,,,,
976,67.46476,133.6853,,0.566509647,-1.776212791,,,,,,,,
977,68.86803,113.9275,,-1.127887809,-1.775629634,,,,,,,,
978,66.62471,135.6168,,0.73215201,-1.775252297,,,,,,,,
979,64.77193,122.6005,,-0.384105144,-1.774926415,,,,,,,,
980,67.70647,118.9472,,-0.697406333,-1.774334682,,,,,,,,
981,72.992,134.2703,,0.616678315,-1.774077407,,,,,,,,
982,70.95194,124.2747,,-0.240528419,-1.773622887,,,,,,,,
983,67.95677,130.6981,,0.310332133,-1.773442795,,,,,,,,
984,67.20959,124.6797,,-0.205796264,-1.77314264,,,,,,,,
985,66.36959,129.0839,,0.171900912,-1.773022578,,,,,,,,
986,67.63896,121.9456,,-0.440268325,-1.771830537,,,,,,,,
987,69.74444,126.2689,,-0.069509004,-1.77176193,,,,,,,,
988,68.17532,134.6122,,0.645999114,-1.770355492,,,,,,,,
989,66.89711,131.8476,,0.408911422,-1.76982379,,,,,,,,
990,67.4966,103.5828,,-2.015032803,-1.769695152,,,,,,,,
991,66.51569,116.3925,,-0.916493336,-1.769154874,,,,,,,,
992,66.88332,123.5095,,-0.306150752,-1.769111995,,,,,,,,
993,69.7277,150.3395,,1.994747311,-1.768408776,,,,,,,,
994,69.78345,135.2437,,0.700155549,-1.767859922,,,,,,,,
995,65.40046,112.4584,,-1.253875485,-1.76681367,,,,,,,,
996,67.99831,137.4861,,0.892460201,-1.766419181,,,,,,,,
997,72.25581,132.7902,,0.489747297,-1.765767417,,,,,,,,
998,70.79562,126.0286,,-0.090116749,-1.765261443,,,,,,,,
999,65.18786,141.3591,,1.224602511,-1.763889308,,,,,,,,
1000,67.7123,135.9065,,0.756996221,-1.763872156,,,,,,,,
1001,70.05146,134.6655,,0.650570038,-1.763717791,,,,,,,,
1002,67.30497,122.0232,,-0.433613473,-1.763271848,,,,,,,,
1003,66.39813,128.3502,,0.108979969,-1.763005997,,,,,,,,
1004,69.73637,130.6354,,0.304955081,-1.762920238,,,,,,,,
1005,68.71659,131.717,,0.397711374,-1.762903086,,,,,,,,
1006,63.88437,108.6132,,-1.583633712,-1.762757297,,,,,,,,
1007,68.40851,114.5673,,-1.07301958,-1.762705842,,,,,,,,
1008,67.93251,133.5136,,0.551784928,-1.761796803,,,,,,,,
1009,70.69674,135.8641,,0.753360064,-1.760887764,,,,,,,,
1010,68.95083,148.1093,,1.803488911,-1.759018231,,,,,,,,
1011,66.49457,123.5179,,-0.305430382,-1.758881017,,,,,,,,
1012,68.59369,120.8406,,-0.535031365,-1.75809204,,,,,,,,
1013,66.26442,116.2666,,-0.927290319,-1.758083464,,,,,,,,
1014,69.58656,123.8986,,-0.272782156,-1.757423124,,,,,,,,
1015,67.35651,119.32,,-0.665435599,-1.757371669,,,,,,,,
1016,69.68727,119.4097,,-0.65774307,-1.757165849,,,,,,,,
1017,68.44046,124.5933,,-0.213205791,-1.756711329,,,,,,,,
1018,68.47973,130.8802,,0.325948739,-1.756119596,,,,,,,,
1019,65.45463,118.2058,,-0.760987616,-1.755707956,,,,,,,,
1020,66.8085,109.6357,,-1.495945741,-1.755630774,,,,,,,,
1021,70.05212,140.2298,,1.127755542,-1.755587894,,,,,,,,
1022,67.43558,121.5764,,-0.471930329,-1.755424953,,,,,,,,
1023,66.54306,98.30262,,-2.467852629,-1.755004737,,,,,,,,
1024,67.32353,117.6173,,-0.811456439,-1.75421576,,,,,,,,
1025,67.9725,136.5104,,0.808785723,-1.754104274,,,,,,,,
1026,69.03858,148.9791,,1.878081574,-1.753804119,,,,,,,,
1027,67.69453,123.9665,,-0.26695916,-1.753726937,,,,,,,,
1028,69.30508,133.5957,,0.558825694,-1.752800746,,,,,,,,
1029,65.39643,117.2334,,-0.844379091,-1.75258635,,,,,,,,
1030,68.35638,123.5943,,-0.298878439,-1.752183286,,,,,,,,
1031,65.36888,117.7674,,-0.798584102,-1.751943162,,,,,,,,
1032,68.36499,137.2321,,0.870677565,-1.751094154,,,,,,,,
1033,71.15702,129.1996,,0.18182316,-1.751042699,,,,,,,,
1034,69.25532,142.4032,,1.314142864,-1.750305176,,,,,,,,
1035,66.6984,128.4838,,0.120437292,-1.750210842,,,,,,,,
1036,69.17548,115.3008,,-1.010115789,-1.749944991,,,,,,,,
1037,68.31559,119.5309,,-0.647349151,-1.749807778,,,,,,,,
1038,67.81616,121.7224,,-0.459409602,-1.749764898,,,,,,,,
1039,68.56123,142.8442,,1.351962322,-1.749739171,,,,,,,,
1040,66.23085,110.1171,,-1.454661644,-1.749301803,,,,,,,,
1041,68.95099,122.0958,,-0.427387412,-1.748761525,,,,,,,,
1042,67.86761,124.8188,,-0.19386727,-1.747612362,,,,,,,,
1043,68.05498,119.3169,,-0.66570145,-1.747475149,,,,,,,,
1044,67.73986,132.4571,,0.461181171,-1.746960599,,,,,,,,
1045,69.83641,133.0316,,0.510449376,-1.746720475,,,,,,,,
1046,70.68574,160.8831,,2.898949652,-1.746617565,,,,,,,,
1047,64.54385,119.127,,-0.681986971,-1.746540382,,,,,,,,
1048,67.93112,138.516,,0.980782784,-1.74636029,,,,,,,,
1049,67.77291,124.8232,,-0.193489933,-1.74615447,,,,,,,,
1050,69.41312,135.9744,,0.762819217,-1.745485554,,,,,,,,
1051,67.77213,116.2254,,-0.930823566,-1.744482181,,,,,,,,
1052,67.79965,139.2002,,1.039458686,-1.744353543,,,,,,,,
1053,67.98313,137.983,,0.935073553,-1.743513111,,,,,,,,
1054,69.97983,144.5084,,1.494681463,-1.743170077,,,,,,,,
1055,63.83261,109.1938,,-1.533842381,-1.742741285,,,,,,,,
1056,65.57212,127.228,,0.012741885,-1.742544041,,,,,,,,
1057,69.34307,124.5517,,-0.21677334,-1.741583546,,,,,,,,
1058,67.28398,114.926,,-1.04225804,-1.741403454,,,,,,,,
1059,68.7435,132.5027,,0.465091755,-1.740906055,,,,,,,,
1060,69.03112,125.3892,,-0.144950674,-1.740811721,,,,,,,,
1061,69.64426,128.4988,,0.121723668,-1.739954137,,,,,,,,
1062,66.70052,117.7319,,-0.801628525,-1.739405283,,,,,,,,
1063,67.9143,112.9531,,-1.211450801,-1.739242342,,,,,,,,
1064,64.36849,126.1835,,-0.076832772,-1.738513395,,,,,,,,
1065,65.87507,118.7934,,-0.710595976,-1.737510022,,,,,,,,
1066,67.07427,125.4388,,-0.140697057,-1.736352284,,,,,,,,
1067,69.34545,124.9451,,-0.183035983,-1.736017826,,,,,,,,
1068,69.83212,145.5139,,1.580911541,-1.735751975,,,,,,,,
1069,66.10245,116.7836,,-0.882953223,-1.734345537,,,,,,,,
1070,69.26205,132.5216,,0.466712588,-1.734285506,,,,,,,,
1071,68.33525,114.8933,,-1.04506234,-1.734002503,,,,,,,,
1072,69.38017,122.8594,,-0.361902293,-1.733848138,,,,,,,,
1073,69.12887,130.5782,,0.3000497,-1.732887644,,,,,,,,
1074,68.44658,119.1058,,-0.68380505,-1.732879068,,,,,,,,
1075,66.34542,133.8204,,0.578095608,-1.731764209,,,,,,,,
1076,70.03275,128.5779,,0.128507158,-1.731687026,,,,,,,,
1077,70.16523,139.0179,,1.023824929,-1.73157554,,,,,,,,
1078,68.18324,101.2876,,-2.211865499,-1.73157554,,,,,,,,
1079,70.12378,140.958,,1.190204814,-1.731275386,,,,,,,,
1080,68.4296,134.6146,,0.646204935,-1.730580743,,,,,,,,
1081,66.43974,129.9482,,0.246021904,-1.730066192,,,,,,,,
1082,71.72703,139.064,,1.027778391,-1.729105698,,,,,,,,
1083,70.72387,135.1996,,0.696373603,-1.728582572,,,,,,,,
1084,68.09022,129.682,,0.223193016,-1.727527744,,,,,,,,
1085,70.12976,129.1395,,0.17666908,-1.727227589,,,,,,,,
1086,66.05393,129.0051,,0.16514315,-1.726087002,,,,,,,,
1087,69.77059,112.7357,,-1.230094679,-1.725941213,,,,,,,,
1088,68.15816,126.1123,,-0.08293877,-1.725135084,,,,,,,,
1089,69.91372,118.3724,,-0.746700265,-1.724783474,,,,,,,,
1090,65.34461,122.9731,,-0.352151562,-1.724260348,,,,,,,,
1091,68.35621,130.3663,,0.281877494,-1.724166014,,,,,,,,
1092,64.50585,114.226,,-1.102288925,-1.723934466,,,,,,,,
1093,67.95491,115.7854,,-0.968557265,-1.723685767,,,,,,,,
1094,68.57621,137.9526,,0.932466498,-1.723668615,,,,,,,,
1095,68.12257,112.2435,,-1.272304967,-1.723359885,,,,,,,,
1096,68.77583,137.237,,0.871097781,-1.723265551,,,,,,,,
1097,67.92593,124.9418,,-0.183318986,-1.72233936,,,,,,,,
1098,69.1484,135.0961,,0.687497608,-1.72213354,,,,,,,,
1099,63.20539,114.4199,,-1.08566037,-1.721953447,,,,,,,,
1100,69.2442,122.1823,,-0.41996931,-1.721001529,,,,,,,,
1101,65.88645,129.375,,0.196865185,-1.719663698,,,,,,,,
1102,67.85186,129.9448,,0.245730325,-1.719200602,,,,,,,,
1103,65.57418,140.4557,,1.147128366,-1.719174875,,,,,,,,
1104,66.70819,120.8977,,-0.53013456,-1.718883296,,,,,,,,
1105,69.172,129.159,,0.178341369,-1.718334442,,,,,,,,
1106,69.23593,137.1397,,0.862753488,-1.718222956,,,,,,,,
1107,67.57232,145.2218,,1.555861511,-1.717948529,,,,,,,,
1108,69.50518,140.0956,,1.116246764,-1.717133825,,,,,,,,
1109,70.60288,124.12,,-0.253795245,-1.716482061,,,,,,,,
1110,66.54152,135.6875,,0.73821513,-1.716104724,,,,,,,,
1111,69.11494,127.756,,0.058022324,-1.715838873,,,,,,,,
1112,69.951,144.0475,,1.455155413,-1.715804569,,,,,,,,
1113,67.70347,131.9333,,0.416260918,-1.715727387,,,,,,,,
1114,69.19028,135.5263,,0.724390874,-1.715607325,,,,,,,,
1115,67.8047,151.3579,,2.082083672,-1.714981289,,,,,,,,
1116,67.62532,124.7073,,-0.203429332,-1.714458162,,,,,,,,
1117,70.36898,135.274,,0.702754028,-1.713634882,,,,,,,,
1118,71.02595,136.5388,,0.811221262,-1.713283272,,,,,,,,
1119,69.8452,137.8778,,0.926051769,-1.71295739,,,,,,,,
1120,67.08638,114.2066,,-1.103952638,-1.712742994,,,,,,,,
1121,68.62013,141.5844,,1.243923881,-1.712451416,,,,,,,,
1122,64.37275,111.0969,,-1.370635556,-1.711550952,,,,,,,,
1123,65.93523,126.3868,,-0.059398087,-1.711319405,,,,,,,,
1124,65.24285,132.8885,,0.498177348,-1.711276525,,,,,,,,
1125,70.51481,144.7904,,1.518865334,-1.710264576,,,,,,,,
1126,66.61129,108.3859,,-1.603126598,-1.710058756,,,,,,,,
1127,67.13394,124.1348,,-0.25252602,-1.70949275,,,,,,,,
1128,66.77634,129.4462,,0.202971183,-1.709406992,,,,,,,,
1129,67.69385,131.3339,,0.364857328,-1.708909593,,,,,,,,
1130,67.82809,111.6411,,-1.323965831,-1.70856656,,,,,,,,
1131,66.63254,111.6422,,-1.323871497,-1.708549408,,,,,,,,
1132,67.62229,140.3178,,1.135302282,-1.708446498,,,,,,,,
1133,69.66798,125.5286,,-0.132995952,-1.70800913,,,,,,,,
1134,62.75039,114.49,,-1.079648705,-1.707417397,,,,,,,,
1135,64.53878,113.998,,-1.121841842,-1.707125818,,,,,,,,
1136,68.01929,117.1931,,-0.847835155,-1.707048636,,,,,,,,
1137,66.38551,138.3156,,0.963596799,-1.706962877,,,,,,,,
1138,70.18724,122.3712,,-0.403769547,-1.706654147,,,,,,,,
1139,64.646,132.9431,,0.502859757,-1.706602692,,,,,,,,
1140,67.48819,124.0449,,-0.260235701,-1.706285386,,,,,,,,
1141,72.01807,144.1591,,1.464726051,-1.70607099,,,,,,,,
1142,66.61356,115.4581,,-0.996625991,-1.703892727,,,,,,,,
1143,65.81803,116.5192,,-0.905627746,-1.703523965,,,,,,,,
1144,71.16185,139.6139,,1.074936939,-1.703017991,,,,,,,,
1145,68.51977,133.2364,,0.528012698,-1.702820746,,,,,,,,
1146,64.96088,120.025,,-0.604975922,-1.702306196,,,,,,,,
1147,66.88268,123.1111,,-0.340316902,-1.702186134,,,,,,,,
1148,70.3531,132.8462,,0.494549767,-1.702160407,,,,,,,,
1149,67.71744,120.9359,,-0.526858589,-1.701465764,,,,,,,,
1150,66.03333,129.7702,,0.230756907,-1.700874031,,,,,,,,
1151,68.9826,136.9118,,0.843209147,-1.700616755,,,,,,,,
1152,68.60237,131.121,,0.346599363,-1.700299449,,,,,,,,
1153,66.8408,133.484,,0.54924648,-1.700205115,,,,,,,,
1154,68.03659,136.3871,,0.798211711,-1.700102205,,,,,,,,
1155,64.79586,131.4559,,0.375319854,-1.699150287,,,,,,,,
1156,70.55126,126.1986,,-0.07553782,-1.698807253,,,,,,,,
1157,68.28166,115.046,,-1.031967031,-1.697743849,,,,,,,,
1158,68.77574,130.3178,,0.277718211,-1.697735273,,,,,,,,
1159,67.09315,131.6954,,0.395858993,-1.6967319,,,,,,,,
1160,70.14303,135.6519,,0.73516213,-1.69668902,,,,,,,,
1161,65.46833,120.3029,,-0.581143661,-1.69658611,,,,,,,,
1162,69.02275,129.1442,,0.177072144,-1.696474624,,,,,,,,
1163,74.24899,150.2167,,1.984216178,-1.696131591,,,,,,,,
1164,64.08575,120.2076,,-0.589316437,-1.695711374,,,,,,,,
1165,67.57977,132.153,,0.43510204,-1.695111066,,,,,,,,
1166,69.19395,132.1247,,0.432675077,-1.695016731,,,,,,,,
1167,64.48615,119.5029,,-0.649750386,-1.69489667,,,,,,,,
1168,68.75888,136.7629,,0.830439721,-1.69485379,,,,,,,,
1169,68.45184,147.7846,,1.775643156,-1.6939276,,,,,,,,
1170,66.44205,145.5992,,1.588226733,-1.693618869,,,,,,,,
1171,70.1756,124.9662,,-0.181226481,-1.693447353,,,,,,,,
1172,67.1386,127.902,,0.070543051,-1.693318715,,,,,,,,
1173,66.91548,125.9147,,-0.099884631,-1.693172926,,,,,,,,
1174,68.63357,109.6821,,-1.491966551,-1.692838468,,,,,,,,
1175,66.95697,107.7733,,-1.655662198,-1.69281274,,,,,,,,
1176,69.97351,134.1099,,0.602922667,-1.692521162,,,,,,,,
1177,66.92568,134.901,,0.670766142,-1.692100946,,,,,,,,
1178,68.76347,139.6364,,1.076866503,-1.69153494,,,,,,,,
1179,67.40692,127.0273,,-0.004469828,-1.690651628,,,,,,,,
1180,65.74615,134.7717,,0.65967758,-1.690445808,,,,,,,,
1181,65.88357,99.97124,,-2.324754436,-1.690420081,,,,,,,,
1182,66.77623,129.4522,,0.203485734,-1.689365252,,,,,,,,
1183,66.9622,129.3592,,0.195510202,-1.688885005,,,,,,,,
1184,63.46642,103.6594,,-2.008463709,-1.688610578,,,,,,,,
1185,68.35224,115.7327,,-0.973076733,-1.68852482,,,,,,,,
1186,64.43147,104.8874,,-1.903152385,-1.688267545,,,,,,,,
1187,63.52175,131.0054,,0.336685692,-1.687752994,,,,,,,,
1188,66.86196,129.0709,,0.170786053,-1.686741045,,,,,,,,
1189,65.53651,102.5494,,-2.103655541,-1.68648377,,,,,,,,
1190,71.82306,133.2257,,0.527095083,-1.685892037,,,,,,,,
1191,68.86538,146.3008,,1.648394832,-1.685651913,,,,,,,,
1192,70.79207,140.8125,,1.177726966,-1.685051604,,,,,,,,
1193,69.02139,132.4618,,0.461584236,-1.684708571,,,,,,,,
1194,67.3527,118.8437,,-0.706282328,-1.684554206,,,,,,,,
1195,66.3294,133.4495,,0.546287814,-1.684468447,,,,,,,,
1196,67.75792,134.882,,0.669136733,-1.68240167,,,,,,,,
1197,68.64796,129.6789,,0.222927165,-1.682230153,,,,,,,,
1198,68.18784,136.7318,,0.827772634,-1.680660774,,,,,,,,
1199,71.53978,133.9981,,0.593334877,-1.680231982,,,,,,,,
1200,68.58959,128.1324,,0.090301788,-1.679820342,,,,,,,,
1201,71.33959,130.2482,,0.271749426,-1.679708856,,,,,,,,
1202,67.18757,130.2934,,0.275625706,-1.67939155,,,,,,,,
1203,67.70033,128.3208,,0.106458672,-1.678714058,,,,,,,,
1204,64.13048,134.0501,,0.597794314,-1.677890777,,,,,,,,
1205,69.90087,140.5808,,1.157856743,-1.677693533,,,,,,,,
1206,66.72044,115.1936,,-1.01930909,-1.677470561,,,,,,,,
1207,69.3532,135.8445,,0.751679199,-1.677264741,,,,,,,,
1208,69.70788,142.8508,,1.352528327,-1.677170407,,,,,,,,
1209,67.73755,143.0931,,1.373307589,-1.676638705,,,,,,,,
1210,68.16879,114.9519,,-1.040036897,-1.676450036,,,,,,,,
1211,71.94697,149.4261,,1.916415582,-1.674520472,,,,,,,,
1212,67.37481,132.0558,,0.426766322,-1.674383259,,,,,,,,
1213,65.34039,127.0174,,-0.005318836,-1.673542826,,,,,,,,
1214,65.63768,103.3615,,-2.034011139,-1.673448492,,,,,,,,
1215,68.91559,125.3216,,-0.150747943,-1.673182641,,,,,,,,
1216,65.44571,130.6423,,0.305546814,-1.67312261,,,,,,,,
1217,68.11726,124.3662,,-0.232681525,-1.671338835,,,,,,,,
1218,69.52284,140.6019,,1.159666246,-1.671072984,,,,,,,,
1219,69.40202,124.229,,-0.244447578,-1.670712799,,,,,,,,
1220,70.00803,132.9642,,0.504669259,-1.669820911,,,,,,,,
1221,68.59817,130.2067,,0.268190452,-1.668894721,,,,,,,,
1222,64.76508,106.6241,,-1.75421576,-1.668843266,,,,,,,,
1223,67.52805,108.9888,,-1.551422854,-1.66879181,,,,,,,,
1224,66.71974,109.9473,,-1.469223421,-1.668405898,,,,,,,,
1225,67.94808,124.363,,-0.232955952,-1.668328715,,,,,,,,
1226,69.09682,131.5021,,0.379281892,-1.667917075,,,,,,,,
1227,70.04724,137.4264,,0.887340424,-1.667539738,,,,,,,,
1228,67.92097,116.0228,,-0.948198219,-1.667479707,,,,,,,,
1229,67.99135,117.9061,,-0.786689411,-1.66689655,,,,,,,,
1230,68.92023,116.7259,,-0.887901483,-1.666862246,,,,,,,,
1231,66.75149,115.4633,,-0.996180048,-1.666596395,,,,,,,,
1232,68.07152,129.9734,,0.248183015,-1.666073269,,,,,,,,
1233,68.75961,148.9128,,1.872395791,-1.666021814,,,,,,,,
1234,70.93048,126.0818,,-0.085554402,-1.665713084,,,,,,,,
1235,68.29873,115.4952,,-0.993444354,-1.665584446,,,,,,,,
1236,69.25316,158.7833,,2.718874149,-1.665550143,,,,,,,,
1237,68.39327,141.2064,,1.211507203,-1.664992713,,,,,,,,
1238,68.48007,129.838,,0.236571327,-1.66470971,,,,,,,,
1239,69.47286,137.0682,,0.856621762,-1.66450389,,,,,,,,
1240,66.33003,123.2428,,-0.329022519,-1.66440098,,,,,,,,
1241,66.88679,117.9651,,-0.781629665,-1.664332373,,,,,,,,
1242,65.20091,102.4998,,-2.107909158,-1.663629154,,,,,,,,
1243,68.37273,130.6338,,0.304817868,-1.663346152,,,,,,,,
1244,67.10601,144.6224,,1.504457921,-1.663320424,,,,,,,,
1245,62.64242,100.1982,,-2.305290708,-1.66277157,,,,,,,,
1246,69.06906,120.2937,,-0.581932638,-1.662299899,,,,,,,,
1247,71.15727,144.3108,,1.477735602,-1.662214141,,,,,,,,
1248,68.93324,114.8805,,-1.046160047,-1.662145534,,,,,,,,
1249,68.10686,141.5328,,1.239498747,-1.662042624,,,,,,,,
1250,64.45765,114.6963,,-1.061956746,-1.661373708,,,,,,,,
1251,65.96736,121.6607,,-0.464700895,-1.660258849,,,,,,,,
1252,68.73038,119.3241,,-0.665083989,-1.660138787,,,,,,,,
1253,70.53564,135.206,,0.696922457,-1.659709995,,,,,,,,
1254,67.40711,115.9409,,-0.955221832,-1.65965854,,,,,,,,
1255,66.11309,123.2264,,-0.330428957,-1.659324082,,,,,,,,
1256,69.47433,133.0619,,0.513047856,-1.659212596,,,,,,,,
1257,70.95476,136.3442,,0.794532676,-1.659083959,,,,,,,,
1258,65.56715,124.1401,,-0.252071501,-1.658972473,,,,,,,,
1259,65.49243,116.2944,,-0.924906235,-1.658955321,,,,,,,,
1260,68.89342,133.1669,,0.522052489,-1.658749501,,,,,,,,
1261,67.59755,137.941,,0.9314717,-1.658680894,,,,,,,,
1262,66.1724,133.3173,,0.534950553,-1.657531732,,,,,,,,
1263,68.70371,114.2219,,-1.102640534,-1.656785633,,,,,,,,
1264,65.47651,137.6516,,0.906653217,-1.656682723,,,,,,,,
1265,67.72604,131.5375,,0.38231774,-1.655756533,,,,,,,,
1266,70.02202,137.2221,,0.869819981,-1.655662198,,,,,,,,
1267,69.72107,135.1331,,0.690670669,-1.655645047,,,,,,,,
1268,67.90954,113.9257,,-1.128042174,-1.655507833,,,,,,,,
1269,65.61306,132.5883,,0.472432674,-1.655250558,,,,,,,,
1270,71.40631,133.5753,,0.557076222,-1.654341519,,,,,,,,
1271,66.27843,106.7793,,-1.740906055,-1.65429864,,,,,,,,
1272,65.0276,95.18466,,-2.735243913,-1.654161426,,,,,,,,
1273,65.68922,114.2675,,-1.098729951,-1.653801241,,,,,,,,
1274,66.85743,126.4804,,-0.051371101,-1.653338146,,,,,,,,
1275,68.23,126.7087,,-0.031792456,-1.653312418,,,,,,,,
1276,66.12036,110.9096,,-1.386698106,-1.653115174,,,,,,,,
1277,71.32591,132.3678,,0.453522945,-1.652386227,,,,,,,,
1278,70.2075,133.7174,,0.569262492,-1.65180307,,,,,,,,
1279,71.03619,144.0125,,1.452153869,-1.651640129,,,,,,,,
1280,68.18528,129.9098,,0.242728781,-1.650842576,,,,,,,,
1281,68.99195,106.5697,,-1.758881017,-1.649959264,,,,,,,,
1282,67.95745,121.9433,,-0.44046557,-1.649599079,,,,,,,,
1283,69.49971,118.1623,,-0.764718107,-1.649547624,,,,,,,,
1284,67.12538,106.6739,,-1.749944991,-1.649196014,,,,,,,,
1285,67.75678,128.444,,0.117024108,-1.648398461,,,,,,,,
1286,67.67958,127.4595,,0.032594956,-1.648149762,,,,,,,,
1287,64.71984,102.93,,-2.071015892,-1.647429391,,,,,,,,
1288,69.72873,127.8299,,0.06435987,-1.64706063,,,,,,,,
1289,68.50234,139.7868,,1.089764568,-1.647043478,,,,,,,,
1290,70.56446,133.2813,,0.53186325,-1.646914841,,,,,,,,
1291,66.58715,120.2949,,-0.581829728,-1.646263077,,,,,,,,
1292,63.80202,102.4047,,-2.116064783,-1.646211622,,,,,,,,
1293,66.38836,134.2056,,0.611129746,-1.645928619,,,,,,,,
1294,66.7895,121.4804,,-0.480163136,-1.64588574,,,,,,,,
1295,66.99003,108.2574,,-1.614146553,-1.645877164,,,,,,,,
1296,72.61998,145.8469,,1.609469091,-1.645705647,,,,,,,,
1297,67.80601,114.9258,,-1.042275191,-1.645602737,,,,,,,,
1298,68.63913,124.6757,,-0.206139298,-1.644976701,,,,,,,,
1299,65.81803,113.619,,-1.154344278,-1.644899518,,,,,,,,
1300,66.5755,126.2651,,-0.069834886,-1.644161996,,,,,,,,
1301,66.40067,124.0382,,-0.260810282,-1.643956176,,,,,,,,
1302,66.75992,120.554,,-0.559609725,-1.643458777,,,,,,,,
1303,69.02475,124.4235,,-0.227767568,-1.642764134,,,,,,,,
1304,70.24902,130.1726,,0.26526609,-1.642000884,,,,,,,,
1305,70.18308,137.2733,,0.874210812,-1.641932277,,,,,,,,
1306,67.63509,126.9051,,-0.014949505,-1.641357696,,,,,,,,
1307,66.43547,118.2885,,-0.753895396,-1.641306241,,,,,,,,
1308,67.50559,119.6817,,-0.634416783,-1.641280513,,,,,,,,
1309,68.19559,134.332,,0.621969609,-1.641014662,,,,,,,,
1310,66.32293,120.0364,,-0.603998276,-1.64038005,,,,,,,,
1311,70.33673,140.2713,,1.131314516,-1.640268564,,,,,,,,
1312,67.9766,139.4025,,1.056807612,-1.639788317,,,,,,,,
1313,66.07451,105.1086,,-1.884182626,-1.638364728,,,,,,,,
1314,68.00118,140.3289,,1.1362542,-1.638261818,,,,,,,,
1315,65.48497,139.7691,,1.088246644,-1.63813318,,,,,,,,
1316,66.99532,118.4896,,-0.73664938,-1.638081725,,,,,,,,
1317,69.89331,121.8301,,-0.450173421,-1.638064573,,,,,,,,
1318,68.03229,130.3482,,0.280325266,-1.636529498,,,,,,,,
1319,70.00989,138.2214,,0.955518357,-1.635706217,,,,,,,,
1320,66.91337,119.9847,,-0.608431986,-1.634857209,,,,,,,,
1321,71.43101,141.5275,,1.239044227,-1.63481433,,,,,,,,
1322,64.42386,128.0746,,0.085344952,-1.633888139,,,,,,,,
1323,68.63254,122.6639,,-0.378668061,-1.633768077,,,,,,,,
1324,70.14808,135.5841,,0.72934771,-1.633356437,,,,,,,,
1325,69.94628,158.7993,,2.720246283,-1.63231876,,,,,,,,
1326,66.40808,103.1971,,-2.048109821,-1.631932847,,,,,,,,
1327,65.27161,122.9332,,-0.355573322,-1.631058111,,,,,,,,
1328,67.02796,119.343,,-0.663463156,-1.630766533,,,,,,,,
1329,66.333,139.5722,,1.071360814,-1.630423499,,,,,,,,
1330,70.05322,124.1145,,-0.254266916,-1.629891797,,,,,,,,
1331,71.49315,132.5483,,0.469002338,-1.629866069,,,,,,,,
1332,67.11911,116.0712,,-0.944047512,-1.629677401,,,,,,,,
1333,72.52115,162.8737,,3.069660337,-1.62941155,,,,,,,,
1334,68.59945,131.1394,,0.348177318,-1.628828393,,,,,,,,
1335,66.72202,124.8745,,-0.189090527,-1.627902202,,,,,,,,
1336,68.33163,123.738,,-0.286554956,-1.62788505,,,,,,,,
1337,66.52804,119.0115,,-0.691892067,-1.627825019,,,,,,,,
1338,69.80841,135.4606,,0.718756547,-1.627687806,,,,,,,,
1339,70.18855,139.6563,,1.078573096,-1.627421955,,,,,,,,
1340,67.70646,120.3449,,-0.577541807,-1.627113225,,,,,,,,
1341,66.73552,113.0404,,-1.203964092,-1.62640143,,,,,,,,
1342,68.37589,115.658,,-0.979482886,-1.626127003,,,,,,,,
1343,68.14008,128.6282,,0.132820806,-1.625715363,,,,,,,,
1344,65.33269,96.52385,,-2.620397111,-1.625681059,,,,,,,,
1345,68.27634,122.6695,,-0.378187814,-1.625595301,,,,,,,,
1346,69.17767,129.3968,,0.198734718,-1.62553527,,,,,,,,
1347,66.47919,128.8422,,0.151173105,-1.625483815,,,,,,,,
1348,66.27731,133.0853,,0.515054603,-1.625355177,,,,,,,,
1349,67.80211,130.1248,,0.261166838,-1.625303722,,,,,,,,
1350,72.66613,138.9119,,1.014734537,-1.625295146,,,,,,,,
1351,70.62111,138.9252,,1.015875124,-1.625269419,,,,,,,,
1352,67.45131,105.9085,,-1.815584476,-1.624403259,,,,,,,,
1353,68.51925,135.4393,,0.716929893,-1.623888709,,,,,,,,
1354,72.05853,147.3129,,1.735190916,-1.623262672,,,,,,,,
1355,64.71472,108.7636,,-1.570735648,-1.622782425,,,,,,,,
1356,66.49054,128.9625,,0.161489842,-1.622585181,,,,,,,,
1357,71.9151,147.7867,,1.775823249,-1.62227645,,,,,,,,
1358,68.37932,128.5716,,0.12796688,-1.62196772,,,,,,,,
1359,69.44208,127.4285,,0.029936445,-1.621899113,,,,,,,,
1360,65.67788,128.9123,,0.15718477,-1.620089611,,,,,,,,
1361,67.97944,123.3621,,-0.318791541,-1.619875215,,,,,,,,
1362,68.18702,122.0501,,-0.431306572,-1.61982376,,,,,,,,
1363,67.96766,159.6644,,2.794435881,-1.619712274,,,,,,,,
1364,67.69418,121.5022,,-0.478293603,-1.61916342,,,,,,,,
1365,66.85727,124.3686,,-0.232475705,-1.618005682,,,,,,,,
1366,68.50423,130.5608,,0.298557504,-1.617508283,,,,,,,,
1367,66.46892,117.7781,,-0.797666487,-1.617388221,,,,,,,,
1368,70.53609,147.1473,,1.720989323,-1.61722528,,,,,,,,
1369,68.60163,128.6512,,0.13479325,-1.616590668,,,,,,,,
1370,67.13712,115.6854,,-0.977133105,-1.615904601,,,,,,,,
1371,63.82574,104.102,,-1.970507038,-1.614832621,,,,,,,,
1372,67.39413,122.4406,,-0.397817914,-1.61456677,,,,,,,,
1373,71.3131,124.6131,,-0.211507774,-1.614223736,,,,,,,,
1374,67.98003,100.4089,,-2.287221412,-1.61421516,,,,,,,,
1375,67.8037,131.8038,,0.405155204,-1.614146553,,,,,,,,
1376,71.05584,134.7575,,0.658459811,-1.613863551,,,,,,,,
1377,70.6785,148.5516,,1.841419855,-1.61345191,,,,,,,,
1378,69.45454,151.3435,,2.080848751,-1.613323273,,,,,,,,
1379,67.75404,121.4032,,-0.486783685,-1.612877329,,,,,,,,
1380,66.37759,132.7138,,0.483195354,-1.611942562,,,,,,,,
1381,66.90907,118.1243,,-0.767976926,-1.611668135,,,,,,,,
1382,67.36022,120.412,,-0.571787418,-1.61130795,,,,,,,,
1383,70.03559,141.4458,,1.232037765,-1.610347456,,,,,,,,
1384,74.19488,129.0597,,0.169825559,-1.610141636,,,,,,,,
1385,68.44192,129.3121,,0.191470981,-1.610124484,,,,,,,,
1386,68.86465,148.5716,,1.843135023,-1.609361234,,,,,,,,
1387,66.41874,112.319,,-1.265830207,-1.609335507,,,,,,,,
1388,68.58215,130.0932,,0.258456873,-1.609146838,,,,,,,,
1389,69.01529,123.1712,,-0.335162821,-1.608941018,,,,,,,,
1390,64.12752,99.36058,,-2.377123665,-1.607714673,,,,,,,,
1391,72.58824,139.1404,,1.034330334,-1.607517429,,,,,,,,
1392,69.53845,131.9771,,0.420017136,-1.606874241,,,,,,,,
1393,69.32255,127.7025,,0.053434249,-1.606805634,,,,,,,,
1394,67.26117,136.8449,,0.83747191,-1.6067113,,,,,,,,
1395,68.8089,126.4916,,-0.050410606,-1.6067113,,,,,,,,
1396,65.83333,111.1847,,-1.363105968,-1.606325387,,,,,,,,
1397,69.14631,128.5255,,0.124013418,-1.60569935,,,,,,,,
1398,66.76436,123.1419,,-0.337675543,-1.605673623,,,,,,,,
1399,68.10866,141.374,,1.225880312,-1.605639319,,,,,,,,
1400,66.52579,127.0178,,-0.005284533,-1.604996131,,,,,,,,
1401,66.72267,118.0513,,-0.77423729,-1.604533036,,,,,,,,
1402,66.66847,115.3536,,-1.005587745,-1.604387247,,,,,,,,
1403,66.13808,136.9275,,0.844555554,-1.603418177,,,,,,,,
1404,68.04169,126.5685,,-0.043815785,-1.603126598,,,,,,,,
1405,67.37032,129.216,,0.183229598,-1.602843595,,,,,,,,
1406,68.37927,142.1694,,1.294092549,-1.602200407,,,,,,,,
1407,68.64261,136.578,,0.814582991,-1.601162731,,,,,,,,
1408,67.06567,121.962,,-0.438861887,-1.600502391,,,,,,,,
1409,69.29222,146.9053,,1.700235789,-1.600322298,,,,,,,,
1410,69.97624,142.657,,1.335908348,-1.600279419,,,,,,,,
1411,68.36664,140.2292,,1.127704087,-1.600022144,,,,,,,,
1412,68.2079,109.8398,,-1.47844245,-1.59988493,,,,,,,,
1413,67.34824,134.8916,,0.669960013,-1.599301773,,,,,,,,
1414,65.91384,127.6066,,0.045210018,-1.598461341,,,,,,,,
1415,67.37608,108.9719,,-1.552872172,-1.598169762,,,,,,,,
1416,70.77374,138.4284,,0.973270348,-1.597552302,,,,,,,,
1417,72.8469,151.4509,,2.090059204,-1.596909114,,,,,,,,
1418,64.95583,130.0036,,0.250772919,-1.596017226,,,,,,,,
1419,68.67514,113.0897,,-1.199736203,-1.595013853,,,,,,,,
1420,68.73548,129.1464,,0.177260813,-1.593873266,,,,,,,,
1421,67.33471,133.1919,,0.524196449,-1.593787508,,,,,,,,
1422,66.68746,124.866,,-0.189819473,-1.593727477,,,,,,,,
1423,65.85168,121.4815,,-0.480068802,-1.593650294,,,,,,,,
1424,70.81582,137.8631,,0.92479112,-1.593633142,,,,,,,,
1425,65.09564,125.8314,,-0.107028307,-1.592200977,,,,,,,,
1426,70.61931,135.3299,,0.707547923,-1.592003733,,,,,,,,
1427,67.96031,107.3931,,-1.688267545,-1.591377696,,,,,,,,
1428,70.68803,144.1915,,1.467504624,-1.591326241,,,,,,,,
1429,66.34093,100.5991,,-2.270910163,-1.589911228,,,,,,,,
1430,71.98092,130.1721,,0.265223211,-1.588556245,,,,,,,,
1431,70.17314,140.8988,,1.185127917,-1.587904481,,,,,,,,
1432,70.63179,143.6734,,1.423073193,-1.587261293,,,,,,,,
1433,64.87469,90.29334,,-3.154715724,-1.586952563,,,,,,,,
1434,69.62426,130.4148,,0.286036776,-1.586043523,,,,,,,,
1435,65.17407,123.8754,,-0.274771751,-1.584851482,,,,,,,,
1436,69.09608,154.0757,,2.315157871,-1.584645661,,,,,,,,
1437,71.81975,137.4948,,0.893206299,-1.584388386,,,,,,,,
1438,68.66104,141.8174,,1.263905589,-1.584362659,,,,,,,,
1439,67.17895,126.8401,,-0.020523802,-1.583633712,,,,,,,,
1440,68.00257,131.9545,,0.418078996,-1.583479347,,,,,,,,
1441,70.77144,120.9803,,-0.523050916,-1.582767552,,,,,,,,
1442,68.82564,119.7816,,-0.625849518,-1.582510277,,,,,,,,
1443,70.04554,127.7472,,0.05726765,-1.582055758,,,,,,,,
1444,68.95339,134.2469,,0.614671568,-1.581532631,,,,,,,,
1445,64.41355,108.5235,,-1.591326241,-1.581455449,,,,,,,,
1446,63.82854,125.0611,,-0.173088008,-1.581043808,,,,,,,,
1447,68.3559,123.0197,,-0.34815522,-1.580657895,,,,,,,,
1448,69.25516,129.8861,,0.240696307,-1.580486379,,,,,,,,
1449,73.38109,154.8178,,2.378799185,-1.58029771,,,,,,,,
1450,69.36199,151.9248,,2.130700113,-1.580040435,,,,,,,,
1451,70.71977,135.6969,,0.739021259,-1.579971828,,,,,,,,
1452,67.59075,127.2047,,0.010743714,-1.579894646,,,,,,,,
1453,70.98644,137.876,,0.925897404,-1.578694028,,,,,,,,
1454,67.73825,124.4771,,-0.223170918,-1.578136598,,,,,,,,
1455,71.10527,154.6002,,2.360138156,-1.576824495,,,,,,,,
1456,71.95975,134.0699,,0.59949233,-1.575675332,,,,,,,,
1457,65.74155,117.4639,,-0.824611778,-1.575641029,,,,,,,,
1458,65.64344,128.3519,,0.109125758,-1.57555527,,,,,,,,
1459,68.37038,118.1031,,-0.769795005,-1.575546694,,,,,,,,
1460,70.50701,127.8238,,0.063836744,-1.575383753,,,,,,,,
1461,66.43263,129.914,,0.243088966,-1.574783445,,,,,,,,
1462,66.60278,131.3221,,0.363845379,-1.574663383,,,,,,,,
1463,68.03472,128.1544,,0.092188473,-1.574431835,,,,,,,,
1464,69.83384,122.8347,,-0.364020525,-1.57417456,,,,,,,,
1465,68.22043,143.5868,,1.415646515,-1.573316976,,,,,,,,
1466,67.78035,106.5681,,-1.759018231,-1.572407937,,,,,,,,
1467,67.1894,124.9457,,-0.182984528,-1.572090631,,,,,,,,
1468,66.17013,113.6761,,-1.149447473,-1.571730445,,,,,,,,
1469,65.98555,105.4988,,-1.850719695,-1.57081283,,,,,,,,
1470,70.37458,125.3804,,-0.145705348,-1.570735648,,,,,,,,
1471,66.98272,120.0159,,-0.605756323,-1.570486948,,,,,,,,
1472,69.07135,135.0513,,0.683655631,-1.569998125,,,,,,,,
1473,64.39778,112.0501,,-1.288890643,-1.569054783,,,,,,,,
1474,70.30031,126.6445,,-0.037298146,-1.568746053,,,,,,,,
1475,68.46686,126.7371,,-0.029356917,-1.567099491,,,,,,,,
1476,68.07287,138.6844,,0.9952245,-1.56703946,,,,,,,,
1477,69.65267,143.346,,1.39499589,-1.566156149,,,,,,,,
1478,67.85116,124.6758,,-0.206130722,-1.565624447,,,,,,,,
1479,68.81195,119.2154,,-0.674405928,-1.565538688,,,,,,,,
1480,68.88093,129.5162,,0.208974272,-1.565272837,,,,,,,,
1481,71.2914,141.2136,,1.212124663,-1.564526739,,,,,,,,
1482,64.93822,124.9304,,-0.184296632,-1.564363798,,,,,,,,
1483,64.39593,117.6936,,-0.804913072,-1.563892127,,,,,,,,
1484,67.61191,128.117,,0.088981109,-1.563557669,,,,,,,,
1485,65.36431,125.507,,-0.134848334,-1.563403304,,,,,,,,
1486,68.57192,139.9115,,1.100458641,-1.563240363,,,,,,,,
1487,69.63015,132.5572,,0.469765588,-1.562897329,,,,,,,,
1488,64.66196,129.5233,,0.209583156,-1.562485689,,,,,,,,
1489,71.18005,139.3905,,1.055778511,-1.562365627,,,,,,,,
1490,65.6959,121.712,,-0.460301489,-1.562185535,,,,,,,,
1491,66.05318,122.7607,,-0.370366648,-1.562185535,,,,,,,,
1492,67.04924,117.4026,,-0.829868769,-1.561190737,,,,,,,,
1493,68.42541,135.9146,,0.757690864,-1.560556125,,,,,,,,
1494,68.54306,123.838,,-0.277979116,-1.560393184,,,,,,,,
1495,65.95454,102.8468,,-2.078150991,-1.560341729,,,,,,,,
1496,66.95297,119.3281,,-0.664740956,-1.559149687,,,,,,,,
1497,64.91704,104.4281,,-1.942541222,-1.558798078,,,,,,,,
1498,66.59452,129.2376,,0.18508198,-1.558592257,,,,,,,,
1499,68.17706,138.2296,,0.956221576,-1.558515075,,,,,,,,
1500,69.573,138.6461,,0.991939953,-1.558420741,,,,,,,,
1501,71.65878,130.4121,,0.285805229,-1.558283527,,,,,,,,
1502,65.06775,124.4317,,-0.227064349,-1.557854735,,,,,,,,
1503,66.85523,127.9011,,0.070465868,-1.55770037,,,,,,,,
1504,67.84366,125.2683,,-0.155318866,-1.557666067,,,,,,,,
1505,69.22848,121.1672,,-0.507022669,-1.557554581,,,,,,,,
1506,69.75159,128.1437,,0.091270858,-1.55749455,,,,,,,,
1507,67.48764,121.494,,-0.478996822,-1.557443095,,,,,,,,
1508,68.12465,129.3746,,0.196830881,-1.556902817,,,,,,,,
1509,68.50207,127.4765,,0.034052849,-1.555710775,,,,,,,,
1510,67.50188,113.1406,,-1.1953711,-1.554844615,,,,,,,,
1511,68.83511,132.5812,,0.47182379,-1.554595916,,,,,,,,
1512,65.40895,110.5741,,-1.415470052,-1.554570188,,,,,,,,
1513,68.31175,139.194,,1.038926984,-1.554355792,,,,,,,,
1514,68.78411,128.757,,0.143866489,-1.554347216,,,,,,,,
1515,65.39974,132.9714,,0.50528672,-1.553455329,,,,,,,,
1516,66.754,125.0153,,-0.177015743,-1.552872172,,,,,,,,
1517,65.37482,95.80713,,-2.681861877,-1.552589169,,,,,,,,
1518,70.65043,152.9084,,2.215052083,-1.552477683,,,,,,,,
1519,70.97634,121.217,,-0.502751901,-1.55229759,,,,,,,,
1520,66.75895,127.448,,0.031608734,-1.552263287,,,,,,,,
1521,66.26857,120.2754,,-0.583502017,-1.552031739,,,,,,,,
1522,67.34174,127.4945,,0.0355965,-1.551422854,,,,,,,,
1523,67.39093,111.026,,-1.376715828,-1.551379975,,,,,,,,
1524,71.04158,153.5447,,2.269620157,-1.551345672,,,,,,,,
1525,63.7418,110.9415,,-1.383962413,-1.550934032,,,,,,,,
1526,66.91954,121.0967,,-0.513068637,-1.549990689,,,,,,,,
1527,65.84956,123.5086,,-0.306227935,-1.549990689,,,,,,,,
1528,67.03723,116.363,,-0.919023209,-1.54974199,,,,,,,,
1529,67.92717,134.9384,,0.673973507,-1.549647655,,,,,,,,
1530,66.72742,113.8451,,-1.134954302,-1.548944437,,,,,,,,
1531,66.34696,113.0531,,-1.20287496,-1.547795274,,,,,,,,
1532,66.53015,127.5692,,0.042002653,-1.547100631,,,,,,,,
1533,68.60951,125.1506,,-0.16541263,-1.546911962,,,,,,,,
1534,66.11208,115.4493,,-0.997380665,-1.546817628,,,,,,,,
1535,67.01143,138.9409,,1.017221531,-1.546345957,,,,,,,,
1536,70.45763,133.292,,0.532780865,-1.546294502,,,,,,,,
1537,65.3277,130.5079,,0.294020884,-1.546148712,,,,,,,,
1538,67.28212,114.2578,,-1.099561807,-1.546148712,,,,,,,,
1539,70.37548,137.6167,,0.903660249,-1.545634162,,,,,,,,
1540,68.04608,114.5218,,-1.076921588,-1.545316856,,,,,,,,
1541,70.36839,139.4884,,1.064174259,-1.54464794,,,,,,,,
1542,68.38089,124.6962,,-0.204381251,-1.544399241,,,,,,,,
1543,67.78852,130.045,,0.254323317,-1.543901842,,,,,,,,
1544,69.77907,141.782,,1.260869742,-1.54378178,,,,,,,,
1545,69.59613,125.4556,,-0.139256316,-1.543670294,,,,,,,,
1546,67.9806,119.1796,,-0.677476079,-1.54326723,,,,,,,,
1547,65.84256,107.0361,,-1.718883296,-1.543190047,,,,,,,,
1548,66.99247,125.3591,,-0.147532002,-1.541963702,,,,,,,,
1549,63.54764,115.7565,,-0.971035683,-1.541732154,,,,,,,,
1550,71.50943,128.7986,,0.147434039,-1.541474879,,,,,,,,
1551,69.94093,129.3747,,0.196839457,-1.540651599,,,,,,,,
1552,71.21029,145.662,,1.593612361,-1.540531537,,,,,,,,
1553,71.56281,123.6062,,-0.297857914,-1.540265686,,,,,,,,
1554,65.31159,124.6278,,-0.210247126,-1.540102745,,,,,,,,
1555,65.18491,122.7439,,-0.371807389,-1.539794014,,,,,,,,
1556,65.25283,120.2892,,-0.582318551,-1.539622498,,,,,,,,
1557,67.46596,128.6295,,0.132932292,-1.539545315,,,,,,,,
1558,67.27426,111.5271,,-1.33374229,-1.538884975,,,,,,,,
1559,64.97376,117.7437,,-0.800616576,-1.538241787,,,,,,,,
1560,64.60687,109.4645,,-1.51062758,-1.538147453,,,,,,,,
1561,69.736,132.9405,,0.502636785,-1.537924481,,,,,,,,
1562,67.7749,124.1881,,-0.247955097,-1.535763369,,,,,,,,
1563,69.30528,136.8094,,0.834427487,-1.535746218,,,,,,,,
1564,71.38338,143.1901,,1.381626155,-1.53561758,,,,,,,,
1565,65.60915,117.3002,,-0.83865043,-1.535548973,,,,,,,,
1566,66.23041,130.8166,,0.320494504,-1.535506094,,,,,,,,
1567,66.53307,137.4417,,0.888652527,-1.534828603,,,,,,,,
1568,67.51649,128.97,,0.16213303,-1.534554176,,,,,,,,
1569,67.72325,114.6422,,-1.066596276,-1.534296901,,,,,,,,
1570,68.57113,138.4685,,0.97670926,-1.533842381,,,,,,,,
1571,66.23808,123.19,,-0.333550563,-1.5332678,,,,,,,,
1572,67.75308,121.9934,,-0.436169073,-1.533087707,,,,,,,,
1573,68.2829,149.3778,,1.912273451,-1.532513126,,,,,,,,
1574,68.40175,137.21,,0.868782304,-1.532444519,,,,,,,,
1575,66.09433,138.6653,,0.993586514,-1.532212971,,,,,,,,
1576,70.03545,118.8309,,-0.707380036,-1.532178668,,,,,,,,
1577,65.46717,116.7297,,-0.887575601,-1.530763654,,,,,,,,
1578,66.46693,131.5675,,0.384890492,-1.530163345,,,,,,,,
1579,67.85512,129.5762,,0.214119776,-1.529460126,,,,,,,,
1580,70.36596,131.4946,,0.378638704,-1.52939152,,,,,,,,
1581,68.09483,125.1984,,-0.161313379,-1.529348641,,,,,,,,
1582,70.06267,131.8467,,0.40883424,-1.529297185,,,,,,,,
1583,67.65661,121.0286,,-0.518908784,-1.527822141,,,,,,,,
1584,69.08508,121.8685,,-0.446880298,-1.527702079,,,,,,,,
1585,68.40932,147.9118,,1.786551626,-1.527702079,,,,,,,,
1586,69.12972,130.6309,,0.304569168,-1.527642048,,,,,,,,
1587,67.97094,139.9751,,1.105912876,-1.527547714,,,,,,,,
1588,67.62895,126.6522,,-0.036637806,-1.526612947,,,,,,,,
1589,66.80442,116.7992,,-0.881615392,-1.5261327,,,,,,,,
1590,68.57388,132.4308,,0.458925725,-1.525849697,,,,,,,,
1591,67.45375,130.6493,,0.306147123,-1.525729636,,,,,,,,
1592,68.6366,132.6351,,0.476446168,-1.525463785,,,,,,,,
1593,65.92344,124.4934,,-0.221773056,-1.525352299,,,,,,,,
1594,70.69799,129.6396,,0.219556859,-1.525120751,,,,,,,,
1595,68.09362,131.2952,,0.361538478,-1.524974962,,,,,,,,
1596,69.50493,121.3845,,-0.488387367,-1.524486139,,,,,,,,
1597,67.03953,116.8423,,-0.877919204,-1.524331774,,,,,,,,
1598,69.04839,143.4353,,1.402654116,-1.524031619,,,,,,,,
1599,70.66314,140.0996,,1.116589798,-1.523740041,,,,,,,,
1600,67.94574,127.1524,,0.006258549,-1.523208339,,,,,,,,
1601,68.5127,116.4033,,-0.915567145,-1.523165459,,,,,,,,
1602,68.81282,145.5938,,1.587763638,-1.522127783,,,,,,,,
1603,67.15097,136.0613,,0.770271622,-1.521158713,,,,,,,,
1604,68.34367,126.2249,,-0.073282374,-1.52042119,,,,,,,,
1605,67.38561,130.9905,,0.335407891,-1.520258249,,,,,,,,
1606,64.88607,131.7105,,0.397153944,-1.520146763,,,,,,,,
1607,65.5339,125.1818,,-0.162736968,-1.519752275,,,,,,,,
1608,69.3919,147.0456,,1.712267693,-1.519306331,,,,,,,,
1609,66.46889,109.3503,,-1.52042119,-1.5192463,,,,,,,,
1610,63.25683,120.7578,,-0.542132161,-1.51914339,,,,,,,,
1611,67.61546,112.4772,,-1.252263227,-1.518783205,,,,,,,,
1612,69.88085,138.4517,,0.975268519,-1.518543081,,,,,,,,
1613,70.15703,136.7186,,0.826640623,-1.518114289,,,,,,,,
1614,70.61107,136.0144,,0.766249553,-1.518028531,,,,,,,,
1615,71.3845,148.7104,,1.85503829,-1.517917045,,,,,,,,
1616,66.53779,120.4476,,-0.568734419,-1.517857014,,,,,,,,
1617,71.05961,133.5431,,0.554314801,-1.517848438,,,,,,,,
1618,67.63928,140.0484,,1.112198967,-1.517599739,,,,,,,,
1619,63.8441,129.0091,,0.165486183,-1.517582587,,,,,,,,
1620,66.79275,121.0921,,-0.513463126,-1.51561872,,,,,,,,
1621,68.61061,125.6694,,-0.120921169,-1.514881197,,,,,,,,
1622,70.40975,117.6691,,-0.807014153,-1.514632498,,,,,,,,
1623,65.20379,133.959,,0.589981723,-1.514418102,,,,,,,,
1624,69.08499,121.968,,-0.438347337,-1.513826369,,,,,,,,
1625,68.29678,135.3754,,0.711449931,-1.513380425,,,,,,,,
1626,65.83832,111.6269,,-1.325183601,-1.513140302,,,,,,,,
1627,67.18313,117.3099,,-0.837818573,-1.512977361,,,,,,,,
1628,67.87544,131.75,,0.400541402,-1.512660054,,,,,,,,
1629,67.51672,130.3517,,0.280625421,-1.512205535,,,,,,,,
1630,67.98827,124.7463,,-0.200084754,-1.512196959,,,,,,,,
1631,70.33848,127.5476,,0.040150271,-1.511913956,,,,,,,,
1632,67.29728,118.5713,,-0.729642918,-1.511793895,,,,,,,,
1633,65.95685,118.7344,,-0.715655722,-1.511536619,,,,,,,,
1634,65.2832,117.239,,-0.843898844,-1.510841976,,,,,,,,
1635,71.86035,127.4872,,0.034970464,-1.51062758,,,,,,,,
1636,67.32069,128.9596,,0.161241142,-1.509950089,,,,,,,,
1637,68.52503,147.7036,,1.768696725,-1.50986433,,,,,,,,
1638,69.74627,132.158,,0.435530832,-1.509675662,,,,,,,,
1639,65.75926,129.6624,,0.221512151,-1.509238294,,,,,,,,
1640,67.26104,142.583,,1.329562226,-1.508766623,,,,,,,,
1641,67.59186,123.1966,,-0.332984558,-1.508603682,,,,,,,,
1642,65.54701,114.619,,-1.068585871,-1.507128637,,,,,,,,
1643,70.57745,134.1679,,0.607896654,-1.506596935,,,,,,,,
1644,64.93595,129.3978,,0.198820476,-1.506502601,,,,,,,,
1645,69.85715,133.0797,,0.514574356,-1.506356812,,,,,,,,
1646,70.81884,130.0722,,0.256655946,-1.505542107,,,,,,,,
1647,68.30112,139.2852,,1.046748151,-1.505241952,,,,,,,,
1648,67.54828,131.5521,,0.383569813,-1.504032759,,,,,,,,
1649,71.89737,135.3276,,0.707350679,-1.503955576,,,,,,,,
1650,68.81871,130.5668,,0.299072054,-1.503218054,,,,,,,,
1651,68.57948,144.8947,,1.527809936,-1.503175175,,,,,,,,
1652,66.01716,121.8662,,-0.447077543,-1.503149447,,,,,,,,
1653,67.25756,110.649,,-1.409046747,-1.502557714,,,,,,,,
1654,70.5545,150.0971,,1.973959473,-1.502540562,,,,,,,,
1655,66.29452,123.8581,,-0.276255372,-1.502068891,,,,,,,,
1656,68.57082,128.4226,,0.115188878,-1.502034588,,,,,,,,
1657,68.60497,125.197,,-0.16143344,-1.501957405,,,,,,,,
1658,67.99508,129.7427,,0.228398551,-1.501897374,,,,,,,,
1659,66.12931,125.7215,,-0.116453156,-1.501725858,,,,,,,,
1660,66.41232,132.001,,0.422066762,-1.501708706,,,,,,,,
1661,68.42482,140.054,,1.112679214,-1.501477158,,,,,,,,
1662,66.80813,114.1178,,-1.111567984,-1.501408551,,,,,,,,
1663,67.72371,116.1322,,-0.938816249,-1.501228459,,,,,,,,
1664,70.99035,117.7071,,-0.803755334,-1.501014063,,,,,,,,
1665,67.56098,131.2855,,0.360706621,-1.500954032,,,,,,,,
1666,69.12684,113.6105,,-1.155073224,-1.500508088,,,,,,,,
1667,67.97635,144.7629,,1.516506978,-1.500122175,,,,,,,,
1668,66.30036,141.6047,,1.245664776,-1.500122175,,,,,,,,
1669,69.30957,140.0213,,1.109874914,-1.49965908,,,,,,,,
1670,65.63213,108.4237,,-1.59988493,-1.499547594,,,,,,,,
1671,66.22333,117.2512,,-0.842852592,-1.499273167,,,,,,,,
1672,66.74595,126.77,,-0.026535466,-1.499067347,,,,,,,,
1673,69.66252,135.074,,0.685602347,-1.499058771,,,,,,,,
1674,68.21548,132.0189,,0.423601837,-1.498852951,,,,,,,,
1675,69.28403,109.2101,,-1.532444519,-1.49869001,,,,,,,,
1676,69.64359,127.8589,,0.066846864,-1.498089701,,,,,,,,
1677,71.48035,122.0737,,-0.429282673,-1.498038246,,,,,,,,
1678,69.37451,137.6851,,0.909526124,-1.497746667,,,,,,,,
1679,65.19039,127.5918,,0.043940793,-1.497600878,,,,,,,,
1680,64.02516,111.5819,,-1.329042729,-1.4970606,,,,,,,,
1681,66.58522,121.3966,,-0.487349691,-1.49675187,,,,,,,,
1682,65.81355,138.8427,,1.008800056,-1.496734718,,,,,,,,
1683,66.10408,116.5048,,-0.906862667,-1.496640384,,,,,,,,
1684,68.56408,137.4424,,0.888712558,-1.496606081,,,,,,,,
1685,67.89191,121.9768,,-0.437592663,-1.496125834,,,,,,,,
1686,71.42475,116.8105,,-0.880646322,-1.495945741,,,,,,,,
1687,65.98772,126.0482,,-0.088435884,-1.495645587,,,,,,,,
1688,70.95594,114.7284,,-1.059203901,-1.495508373,,,,,,,,
1689,64.37344,126.7487,,-0.02836212,-1.495276825,,,,,,,,
1690,69.76692,131.342,,0.365551971,-1.494830882,,,,,,,,
1691,66.46755,119.0926,,-0.684937061,-1.494676517,,,,,,,,
1692,67.76109,137.8646,,0.924919758,-1.494565031,,,,,,,,
1693,71.17728,129.5914,,0.215423304,-1.493921843,,,,,,,,
1694,67.31413,128.105,,0.087952008,-1.493904691,,,,,,,,
1695,70.22181,137.4504,,0.889398625,-1.493724598,,,,,,,,
1696,69.28985,129.6324,,0.218939399,-1.493544506,,,,,,,,
1697,66.35778,133.4823,,0.54910069,-1.493347261,,,,,,,,
1698,69.27648,124.7911,,-0.196242778,-1.493338685,,,,,,,,
1699,66.3778,113.9428,,-1.126575706,-1.492018006,,,,,,,,
1700,63.24012,116.8399,,-0.878125024,-1.491966551,,,,,,,,
1701,69.18211,138.7521,,1.001030344,-1.490971753,,,,,,,,
1702,69.11432,125.4607,,-0.138818948,-1.489848318,,,,,,,,
1703,67.48024,130.5948,,0.30147329,-1.489848318,,,,,,,,
1704,69.75327,134.2699,,0.616644012,-1.489196554,,,,,,,,
1705,69.62313,143.4724,,1.405835753,-1.488913552,,,,,,,,
1706,65.95463,142.254,,1.30134771,-1.488604821,,,,,,,,
1707,68.89125,139.8464,,1.094875769,-1.487627175,,,,,,,,
1708,67.23829,132.4897,,0.463976895,-1.487318445,,,,,,,,
1709,67.73728,138.5529,,0.983947269,-1.487146928,,,,,,,,
1710,68.72443,123.1153,,-0.339956716,-1.486898229,,,,,,,,
1711,65.20195,132.6998,,0.481994737,-1.486315072,,,,,,,,
1712,66.2865,106.6149,,-1.755004737,-1.486057797,,,,,,,,
1713,68.01878,134.9917,,0.67854443,-1.485217364,,,,,,,,
1714,66.89261,130.92,,0.329361924,-1.484436963,,,,,,,,
1715,67.79814,122.4887,,-0.393692934,-1.484411235,,,,,,,,
1716,66.6555,136.0645,,0.770546049,-1.483982443,,,,,,,,
1717,69.77338,119.5334,,-0.647134755,-1.483930988,,,,,,,,
1718,68.42446,117.7405,,-0.800891003,-1.48380235,,,,,,,,
1719,65.55531,115.5734,,-0.986738047,-1.483399286,,,,,,,,
1720,68.34513,104.7006,,-1.919172056,-1.483090556,,,,,,,,
1721,66.26115,123.6592,,-0.293312719,-1.482884736,,,,,,,,
1722,66.40599,138.5289,,0.981889068,-1.482550278,,,,,,,,
1723,68.64386,132.2257,,0.441336676,-1.48252455,,,,,,,,
1724,68.70476,117.2914,,-0.839405104,-1.482481671,,,,,,,,
1725,68.03119,141.6933,,1.253262971,-1.482232972,,,,,,,,
1726,66.25774,129.6313,,0.218845064,-1.482027151,,,,,,,,
1727,64.0967,94.51219,,-2.792913869,-1.481949969,,,,,,,,
1728,67.0669,120.6412,,-0.552131591,-1.481838483,,,,,,,,
1729,65.80509,121.3762,,-0.489099162,-1.481135264,,,,,,,,
1730,68.05092,133.2667,,0.530611178,-1.480955171,,,,,,,,
1731,67.52718,127.9032,,0.070645961,-1.480886565,,,,,,,,
1732,66.35888,123.3962,,-0.31586718,-1.480414893,,,,,,,,
1733,70.87196,136.9675,,0.847985891,-1.479977526,,,,,,,,
1734,68.29448,114.1357,,-1.110032909,-1.479814585,,,,,,,,
1735,67.0344,118.0845,,-0.771390111,-1.479797433,,,,,,,,
1736,70.91179,121.8608,,-0.447540638,-1.479317186,,,,,,,,
1737,68.77458,145.5199,,1.581426092,-1.478931273,,,,,,,,
1738,68.8064,128.9862,,0.163522316,-1.47844245,,,,,,,,
1739,66.80841,110.4729,,-1.424148802,-1.478305237,,,,,,,,
1740,65.02676,126.9126,,-0.014306317,-1.478193751,,,,,,,,
1741,71.83389,141.1132,,1.203514519,-1.478125144,,,,,,,,
1742,67.41125,138.183,,0.952225235,-1.477876445,,,,,,,,
1743,68.8635,132.6335,,0.476308954,-1.477541987,,,,,,,,
1744,66.39633,127.2025,,0.010555045,-1.477396197,,,,,,,,
1745,67.90122,146.2561,,1.644561431,-1.477216105,,,,,,,,
1746,69.04019,141.6517,,1.249695421,-1.477053164,,,,,,,,
1747,66.26552,126.5209,,-0.047897885,-1.476521462,,,,,,,,
1748,68.4645,121.554,,-0.473851317,-1.476229883,,,,,,,,
1749,66.8815,116.5904,,-0.899521747,-1.476118397,,,,,,,,
1750,71.36376,139.0275,,1.024648209,-1.475698181,,,,,,,,
1751,66.06344,116.2031,,-0.932735978,-1.475295116,,,,,,,,
1752,66.64834,115.7431,,-0.972184845,-1.473922982,,,,,,,,
1753,67.3297,116.8138,,-0.880363319,-1.473031095,,,,,,,,
1754,68.20575,138.6574,,0.992909023,-1.472996791,,,,,,,,
1755,69.59793,108.5229,,-1.591377696,-1.472156359,,,,,,,,
1756,67.50819,133.6747,,0.565600608,-1.471933387,,,,,,,,
1757,68.00385,128.0916,,0.086802845,-1.471393109,,,,,,,,
1758,69.51431,128.6687,,0.136294022,-1.471307351,,,,,,,,
1759,68.00582,115.4484,,-0.997457848,-1.471307351,,,,,,,,
1760,67.59357,125.0018,,-0.178173481,-1.471290199,,,,,,,,
1761,69.78942,136.4816,,0.806315881,-1.471290199,,,,,,,,
1762,72.36491,121.9301,,-0.44159758,-1.47099862,,,,,,,,
1763,68.13393,126.8874,,-0.016467429,-1.470724193,,,,,,,,
1764,67.83776,119.9595,,-0.610593098,-1.469960944,,,,,,,,
1765,68.87619,142.2743,,1.303088606,-1.469900913,,,,,,,,
1766,66.04124,129.9792,,0.248680414,-1.469729396,,,,,,,,
1767,65.81569,131.1604,,0.349978245,-1.469532152,,,,,,,,
1768,69.22762,128.8601,,0.152708181,-1.469403514,,,,,,,,
1769,64.72395,111.9433,,-1.298049641,-1.469223421,,,,,,,,
1770,68.48588,132.3867,,0.455143779,-1.469146239,,,,,,,,
1771,68.28041,134.2844,,0.617887509,-1.469043329,,,,,,,,
